tree
version=v4
num_class=1
num_tree_per_iteration=1
label_index=0
max_feature_idx=30
objective=binary sigmoid:1
feature_names=Column_0 Column_1 Column_2 Column_3 Column_4 Column_5 Column_6 Column_7 Column_8 Column_9 Column_10 Column_11 Column_12 Column_13 Column_14 Column_15 Column_16 Column_17 Column_18 Column_19 Column_20 Column_21 Column_22 Column_23 Column_24 Column_25 Column_26 Column_27 Column_28 Column_29 Column_30
feature_infos=[0:1] [0:1] [0:1] [0:1] [0:1] [0:1] [0:1] [0:1] [0:1] [0:1] [0:1] [0:1] [9.5255331917204061e-06:0.75548908850172891] [9.5255331917204061e-06:0.015755231899105552] [0.0030855923588894315:0.55422783986762236] [0.11342052371381488:0.72438822263076175] [0.021018237674732338:0.23055719318949233] [-299.73012282152524:1915.6040995866306] [3.8647342995169083e-06:774.01999999999998] [0.22:233261.51000000001] [0:50] [-4:145274] [0:7530] [0:2215] [0.02:3696.3499999999999] [0:100] [0:1] [0.16:13878743.710000001] [0:285.08571428571429] [0:58] [0:1]
tree_sizes=3384 3415 3420 3415 3434 3445 3425 3467 3462 3469 3475 3455 3445 3472 3439 3467 3447 3476 3466 3458 3472 3491 3468 3475 3477 3469 3464 3461 3481 3489 3440 3480 3490 3444 3485 3478 3477 3485 3468 3457 3431 3490 3494 3455 3447 3458 3437 3455 3473 3417 3432 3465 3500 3451 3469 3396 3430 3475 3456 3446 3403 3458 3393 3436 3428 3400 3457 3436 3474 3457 3402 3452 3417 3441 3445 3435 3452 3429 3409 3440 3409 3427 3420 3451 3465 3430 3445 3464 3410 3464 3464 3437 3446 3396 3452 3385 3430 3403 3418 3421

Tree=0
num_leaves=31
num_cat=0
split_feature=15 25 25 15 12 25 25 25 25 25 22 25 12 25 25 22 15 18 25 15 25 18 18 12 14 14 12 17 14 18
split_gain=131249 27638.4 24994.4 20317.7 15840.5 4118.75 6108.3 3902.54 3197.8 3159.17 2989.75 2254.48 1881.71 1871 3134.83 1492.17 1373.88 1229.24 1141.53 1076.77 992.694 952.402 907.154 898.94 844.902 771.103 735.919 929.948 694.09 628.104
threshold=0.13780588868461915 85.500000000000014 71.500000000000014 0.44328973814309264 0.47981063240014865 25.500000000000004 66.500000000000014 86.500000000000014 65.500000000000014 94.500000000000014 203.50000000000003 25.500000000000004 0.47981063240014865 25.500000000000004 64.500000000000014 1634.5000000000002 0.44328973814309264 0.029403774390007374 47.500000000000007 0.44328973814309264 89.500000000000014 0.0054630664464915433 0.024015976303759682 0.47981063240014865 0.10500553662386601 0.062128640540798467 0.47981063240014865 -103.21712205604162 0.056273136722728288 0.011867716193966373
decision_type=2 2 2 2 2 2 2 2 2 2 2 2 2 2 2 2 2 2 2 2 2 2 2 2 2 2 2 2 2 2
left_child=2 3 13 5 10 23 18 29 11 16 -3 22 -8 21 -15 24 -6 -12 -7 -19 -18 -1 -5 -2 -10 -21 27 -9 -22 -4
right_child=1 4 7 8 9 6 12 26 15 -11 17 -13 -14 14 -16 -17 20 19 -20 25 28 -23 -24 -25 -26 -27 -28 -29 -30 -31
leaf_value=-2.3400061827903995 -2.4212799769547817 -1.8362194496301378 -1.8354761342580486 -2.8239183527504892 -1.4548579580026062 -2.8741918018266519 -2.6801661402383363 -1.2427567585186565 -2.6051828301785567 -1.3801330217338894 -2.798784263398681 -2.9570960241800504 -1.9219449993560973 -2.5730944120812387 -1.8390414758115179 -2.8124076851341941 -2.1813829229509283 -1.9327701422238341 -2.5436442980694642 -2.7997996707591679 -2.0633828583167668 -1.8279165156416071 -2.6196970770932357 -2.0236698735072869 -2.2542175582866957 -2.2227703779390451 -1.1146490227068633 -1.8565416078615316 -1.6394491422083866 -1.5062097091963582
leaf_weight=46.892480775713921 67.383876100182533 49.365174651145935 73.296203032135963 820.47911374270916 55.911124214529991 210.7674398124218 39.991736844182014 136.3760966360569 448.50061048567295 163.10068126022816 241.23374274373055 1513.6517681330442 180.28210417926311 185.17589603364468 84.829638347029686 374.09541733562946 146.75244037806988 33.805855259299278 207.17218841612339 62.55194479227066 67.306988462805748 161.06237009167671 295.9724288135767 364.12098398804665 80.977164298295975 36.773679167032242 565.0430121421814 30.140103057026863 90.6159907579422 276.42518994212151
leaf_count=677 1021 494 733 15337 372 4033 697 653 7521 978 4456 30067 1940 3053 851 6955 1914 367 3362 1156 808 1600 5001 4244 1108 493 2069 307 750 1964
internal_value=-2.37729 -2.605 -1.56664 -2.70623 -2.11314 -2.3244 -2.48574 -1.30045 -2.82182 -1.74533 -2.56771 -2.87758 -2.0596 -2.16884 -2.34247 -2.65952 -1.91052 -2.66417 -2.71034 -2.42025 -1.99413 -1.94339 -2.76978 -2.08576 -2.55151 -2.58616 -1.1691 -1.35385 -1.82013 -1.57522
internal_weight=7110.05 5550.81 1559.24 4603.39 947.418 1069.72 638.213 1081.28 3533.68 523.687 423.73 2630.1 220.274 477.96 270.006 903.573 360.587 374.365 417.94 133.131 304.675 207.955 1116.45 431.505 529.478 99.3256 731.559 166.516 157.923 349.721
internal_count=104981 93074 11907 81286 11788 15297 10032 5726 65989 4822 6966 50405 2637 6181 3904 15584 3844 6472 7395 2016 3472 2277 20338 5265 8629 1649 3029 960 1558 2697
is_linear=0
shrinkage=1


Tree=1
num_leaves=31
num_cat=0
split_feature=15 25 21 14 21 25 25 14 23 25 14 18 22 25 25 21 8 30 7 25 22 25 14 17 22 18 14 28 15 18
split_gain=12666.3 7629.99 1710.03 1417.91 1105.41 1070.92 880.123 697.542 652.987 543.912 479.281 441.134 426.494 421.094 424.321 358.408 351.898 329.151 322.06 780.805 310.507 234.162 217.538 215.696 214.842 206.452 202.964 179.464 177.286 219.242
threshold=0.44328973814309264 73.500000000000014 20.500000000000004 0.05184442242257959 3.5000000000000004 25.500000000000004 63.500000000000007 0.058763581965600692 6.5000000000000009 10.500000000000002 0.12578769355543248 0.019064918869330889 1585.5000000000002 25.500000000000004 74.500000000000014 12.500000000000002 1.0000000180025095e-35 1.0000000180025095e-35 1.0000000180025095e-35 25.500000000000004 952.50000000000011 81.500000000000014 0.14119104539633018 -280.65068385795604 2788.5000000000005 0.0156011880695425 0.022600310339522457 0.13797521101930438 0.13780588868461915 0.096408401686219419
decision_type=2 2 2 2 2 2 2 2 2 2 2 2 2 2 2 2 2 2 2 2 2 2 2 2 2 2 2 2 2 2
left_child=2 5 7 4 26 9 -7 16 27 17 13 22 -8 -4 25 21 18 -2 -1 -20 -6 -10 -11 -24 -17 -15 -3 -5 -16 -30
right_child=1 3 10 8 20 6 12 -9 15 11 -12 -13 -14 14 28 24 -18 -19 19 -21 -22 -23 23 -25 -26 -27 -28 -29 29 -31
leaf_value=0.35038997187053794 0.36812744258610836 0.16246340728737371 0.28540381136425119 0.47979985001684994 0.25329070501940693 -0.053104241481377358 0.18865190745582039 0.40164633500032942 0.20545857752356184 0.096774674592028431 0.40948831248908518 0.27198597997330498 0.002547004466076877 0.040865533885587127 0.31254881420328839 0.2372740574879488 0.19038028866721896 0.015902636323245012 0.3807764228481092 0.0016210670949718909 0.025959689521898602 0.35387178927988483 1.2820412195948394 0.26172942409258548 -0.035565216048483034 0.21994084636465888 0.30245345699949272 0.34117915148309064 0.085060818315176756 0.52828840986246617
leaf_weight=2467.1256053112447 27.931623250246048 129.76940136402845 451.50895421952009 342.68157644569874 72.700388345867395 1368.7442597933114 265.89276715368032 2767.4039450697601 134.82126326858997 445.80819566547871 138.86641392484307 251.51981012523174 229.35993918403983 261.03601983934641 173.82012404501438 78.267343569546938 167.05119953304529 529.14003938436508 132.44367434829473 92.070522949099541 346.20422855764627 502.69622000306845 2.9866764694452286 6.7650010138750059 45.719491761177778 85.455359842628241 512.94459606334567 128.3840297460556 84.177187599241734 12.865924149751661
leaf_count=8132 356 1302 2944 1311 710 28519 3483 6881 1629 7632 492 3248 4169 3652 444 756 2197 8976 696 1564 5332 2811 20 106 723 953 4267 697 940 39
internal_value=0.252128 0.138002 0.342682 0.276517 0.191807 0.0364141 -0.0117708 0.365859 0.349478 0.107463 0.234716 0.165685 0.102464 0.21201 0.158332 0.292231 0.331215 0.0335632 0.339955 0.225289 0.0654127 0.322486 0.106995 0.574223 0.136666 0.085031 0.274188 0.44202 0.252099 0.143824
internal_weight=12256.2 5422.34 6833.82 2294.19 1061.62 3128.15 1864 5626.09 1232.57 1264.15 1207.73 707.08 495.253 1068.86 617.355 761.504 2858.69 557.072 2691.64 224.514 418.905 637.517 455.56 9.75168 123.987 346.491 642.714 471.066 270.863 97.0431
internal_count=104981 76047 28934 19538 11611 56509 36171 19470 7927 20338 9464 11006 7652 8972 6028 5919 12589 9332 10392 2260 6042 4440 7758 126 1479 4605 5569 2008 1423 979
is_linear=0
shrinkage=0.1


Tree=2
num_leaves=31
num_cat=0
split_feature=15 25 21 25 12 30 25 25 14 24 18 18 25 25 7 14 25 22 26 25 13 25 25 20 20 19 17 22 13 28
split_gain=6795.06 4349.67 904.042 823.812 756.896 849.623 603.064 529.46 479.011 347.087 330.413 311.028 288.35 350.842 275.069 241.314 205.824 214.559 199.092 187.623 183.667 175.142 167.277 166.492 163.545 161.858 158.631 157.521 157.327 205.236
threshold=0.44328973814309264 72.500000000000014 12.500000000000002 26.500000000000004 0.47981063240014865 1.0000000180025095e-35 63.500000000000007 83.500000000000014 0.060064711088507534 168.48500000000004 0.024906049898400204 0.040725576442078769 65.500000000000014 26.500000000000004 1.0000000180025095e-35 0.0607158106982316 22.500000000000004 1703.5000000000002 0.59475000000000011 9.5000000000000018 0.00021432449681370918 41.500000000000007 10.500000000000002 8.5000000000000018 36.500000000000007 1160.0350000000001 -100.5709449805522 1246.5000000000002 0.0035387355807241314 0.29768000615077078
decision_type=2 2 2 2 2 2 2 2 2 2 2 2 2 2 2 2 2 2 2 2 2 2 2 2 2 2 2 2 2 2
left_child=2 3 12 10 5 20 -5 9 16 -6 22 27 13 19 18 -7 -4 21 -15 -1 -3 -18 -2 -12 -20 -11 -17 28 -8 -30
right_child=1 4 8 6 7 15 11 -9 -10 25 23 -13 -14 14 -16 26 17 -19 24 -21 -22 -23 -24 -25 -26 -27 -28 -29 29 -31
leaf_value=0.20194016690703545 0.0041768471642446509 0.16463813172850372 0.20064716935322879 -0.052765606111839981 0.1291077914767696 0.0043303294374002505 0.060728167930915733 0.26068870378171077 0.25294153566403399 0.040590351853634715 0.23140836311119295 0.20627932907039004 0.27840530240800443 0.41253566279148529 0.025044844323961809 0.22433106370565309 -0.068408405094825472 0.086131273107043591 0.21717811692396702 0.29524597932539737 0.39451061878945876 0.25024254558061837 0.087907350986509689 0.10653902037911274 0.052504245638322969 0.46502041190509652 0.03046968569663315 -0.018118786104801155 0.1092691962408233 0.68541524240261786
leaf_weight=332.33003549277782 405.84443297237158 52.827705226838589 489.73856446892023 1271.545318365097 583.77595845609903 369.64304811879992 83.155580140650272 1518.1698961853981 735.37324128672481 11.085713405162094 180.30496300756931 136.79440278559923 4991.0499872490764 39.54699818789959 118.52212393283844 105.34729476645589 19.45071267709136 549.25664460286498 232.41481409966946 613.0875803232193 101.61844530701637 152.36849410459399 578.99668284133077 261.84312143176794 81.444130338728428 47.417093109339476 70.426748681813478 234.73147980123758 15.161134466528894 10.440594695508478
leaf_count=1509 7086 335 2569 27824 6460 5580 1022 5534 3223 141 1920 1531 8105 275 1717 789 266 5264 2083 2326 370 725 8926 3101 872 292 809 4086 169 72
internal_value=0.190557 0.109743 0.248973 0.0292396 0.199211 0.10883 -0.0167062 0.228489 0.189282 0.152379 0.0856445 0.0787608 0.267101 0.227296 0.156877 0.0501987 0.150619 0.116641 0.201089 0.262447 0.315884 0.21417 0.0534027 0.15746 0.174446 0.384595 0.146657 0.0279765 0.127464 0.344226
internal_weight=14393.7 6039.13 8354.58 3178.82 2860.31 699.863 1751.83 2160.45 1946.19 642.279 1426.99 480.283 6408.4 1417.35 471.928 545.417 1210.81 721.076 353.406 945.418 154.446 171.819 984.841 442.148 313.859 58.5028 175.774 343.489 108.757 25.6017
internal_count=104981 76047 28934 55737 20310 7883 34704 12427 12047 6893 21033 6880 16887 8782 4947 7178 8824 6255 3230 3835 705 991 16012 5021 2955 433 1598 5349 1263 241
is_linear=0
shrinkage=0.1


Tree=3
num_leaves=31
num_cat=0
split_feature=15 25 25 25 23 25 25 25 14 12 18 14 23 25 21 25 24 26 14 22 14 27 25 14 18 23 24 14 27 21
split_gain=4368.81 2811.26 748.251 611.87 496.934 478.464 341.282 487.031 338.248 330.397 286.794 269.473 300.423 221.385 203.748 202.55 198.858 176.464 174.792 191.861 172.663 168.696 162.224 173.457 150.533 151.666 150.322 229.612 232.707 202.588
threshold=0.44328973814309264 72.500000000000014 71.500000000000014 26.500000000000004 211.50000000000003 63.500000000000007 25.500000000000004 47.500000000000007 0.03860434744594736 0.47981063240014865 0.067053856279382137 0.087343385551775815 73.500000000000014 90.500000000000014 8.5000000000000018 9.5000000000000018 255.90000000000003 0.71095000000000008 0.20404189320677782 785.50000000000011 0.070154323153552564 48784.69000000001 9.5000000000000018 0.055586005490619116 0.052708846469622338 277.50000000000006 282.62000000000006 0.11431346563172261 237710.57000000004 35.500000000000007
decision_type=2 2 2 2 2 2 2 2 2 2 2 2 2 2 2 2 2 2 2 2 2 2 2 2 2 2 2 2 2 2
left_child=2 3 6 11 8 26 22 -8 13 -6 -9 15 17 -3 16 -2 -7 -13 19 -10 -4 -19 23 -1 -17 -26 -5 -28 29 -29
right_child=1 4 20 5 9 14 7 10 18 -11 -12 12 -14 -15 -16 24 -18 21 -20 -21 -22 -23 -24 -25 25 -27 27 28 -30 -31
leaf_value=0.11131819557172931 0.0015183511910277321 0.054688755084439017 0.20245475266676843 -0.054574652026150007 -0.0014472399780455524 0.098780996788172787 0.03611385817833191 0.13551170823089714 0.2178485336518039 0.13436382204817318 0.26654319667414567 0.52765761941895339 0.093159593574981381 0.18205707471363347 -0.018183877612375322 0.064894861932698833 0.55101018554195447 0.0093259484831144154 0.29779464776003101 0.15016548020893053 0.23661220454059315 0.4116259895660308 0.20903820282271807 0.21279453176567786 0.24524738746333286 0.0048799319549473544 -0.040179430954566685 1.6163496712687906 0.10818197711294389 -0.10467487999611627
leaf_weight=446.57733554393053 473.40835141390562 312.17203353345394 3071.6858456209302 1191.4991180412471 271.53492925316095 317.89525237306952 440.33140626549721 849.32247003167868 1010.8397979959846 526.36856070533395 207.93440269678831 29.770919669419527 152.24450670555234 242.45550390332937 187.01597750931978 705.5068395100534 10.030388854444025 21.009488195180893 164.14094888046384 715.10912758111954 2855.729047447443 20.686197578907013 1276.2028314992785 270.46373808383942 97.695328697562218 35.895318001508713 12.854993458837273 2.8904476985335346 3.8950522281229496 0.895994123071432
leaf_count=2123 7516 3078 6063 27401 3908 3645 5710 5637 3729 3490 750 180 1974 1332 3165 9714 70 283 220 4553 3232 191 4471 948 792 383 294 24 84 21
internal_value=0.153747 0.0907258 0.197281 0.0251979 0.15667 -0.0156426 0.160552 0.124479 0.179034 0.0881459 0.161282 0.0711098 0.172556 0.110368 0.0651106 0.0538186 0.112614 0.341695 0.199184 0.189806 0.218911 0.208916 0.187654 0.149594 0.0833258 0.180662 -0.0499512 0.218297 0.650858 1.2091
internal_weight=15924.1 6505.82 9418.25 3263.19 3242.62 1726.98 3490.83 1497.59 2444.72 797.903 1057.26 1536.22 223.711 554.628 514.942 1312.51 327.926 71.4666 1890.09 1725.95 5927.41 41.6957 1993.24 717.041 839.097 133.591 1212.04 20.5365 7.68149 3.78644
internal_count=104981 76047 28934 55737 20310 34704 19639 12097 12912 7398 6387 21033 2628 4410 6880 18405 3715 654 8502 8282 9295 474 7542 3071 10889 1175 27824 423 129 45
is_linear=0
shrinkage=0.1


Tree=4
num_leaves=31
num_cat=0
split_feature=15 25 25 18 12 21 18 21 21 25 25 14 14 25 24 21 27 21 14 16 8 30 14 24 25 24 22 25 19 26
split_gain=3117.42 1980.8 735.95 543.191 365.734 400.218 330.471 246.911 223.861 262.888 179.055 171.914 151.471 136.845 133.373 139.57 129.313 129.298 125.781 115.924 113.269 112.451 110.59 108.875 108.729 140.131 122.122 134.059 115.034 106.778
threshold=0.44328973814309264 82.500000000000014 82.500000000000014 0.025348447991429764 0.47981063240014865 6.5000000000000009 0.067053856279382137 17.500000000000004 1.5000000000000002 25.500000000000004 24.500000000000004 0.062128640540798467 0.28536610881402563 52.500000000000007 282.62000000000006 -1.0000000180025095e-35 55.270000000000003 66.500000000000014 0.018515188761384301 0.065522578453682409 1.0000000180025095e-35 1.0000000180025095e-35 0.05178941343447583 6.245000000000001 69.500000000000014 6.6550000000000011 309.50000000000006 23.500000000000004 1035.6000000000001 0.71375000000000011
decision_type=2 2 2 2 2 2 2 2 2 2 2 2 2 2 2 2 2 2 2 2 2 2 2 2 2 2 2 2 2 2
left_child=2 3 6 8 5 11 7 22 18 -10 -9 -3 14 -11 20 -16 -6 -4 -2 -19 -5 -17 -1 -20 26 -26 28 29 -25 -28
right_child=1 4 17 12 16 -7 -8 10 9 13 -12 -13 -14 -15 15 21 -18 19 23 -21 -22 -23 -24 24 25 -27 27 -29 -30 -31
leaf_value=0.12481799090991282 -0.089204595930507724 0.082148147820722925 0.19419229586296372 0.080676019772890184 0.26551547544251047 -0.012882278781769072 0.1878207747693183 0.1232194930249341 0.033827180792546263 -0.072485063438815944 0.051022468515867447 0.21023150655952483 0.58939457693656139 -0.0068566864918701009 0.78863966569964661 0.49069130551482526 0.15879750435381315 -0.070064434569124076 -0.014121789588337772 0.15179710189690193 -0.014670793371259296 0.13238961954911771 0.16454680575749692 0.64144886932691125 0.57101553767487678 0.15223377656047643 -0.065995337388407502 -0.032708653952168779 -0.108968270077155 0.19978961336894721
leaf_weight=1600.2520150728524 45.397933509200811 223.02739037945867 4764.1794195026159 1236.3546048775315 120.86978141218424 274.54743989929557 1058.4485819675028 764.39741317182779 931.95951010286808 569.9650831669569 623.89198352396488 197.66765017062426 5.8559861779212943 717.90844823792577 3.6740563735365859 9.561169255524872 1873.483540404588 33.515568524599075 86.87327142059803 79.213986396789551 138.5573785752058 104.43175987899303 1246.3570756167173 6.6390149183571321 8.4831622019410116 137.50273634120822 19.719230987131596 101.71404560282826 2.9506878703832626 64.743403781205416
leaf_count=7121 770 1867 5463 12797 136 3829 2847 3086 13744 13749 5537 703 19 12364 10 38 5975 314 1232 193 3304 1029 4373 65 35 1122 293 2075 47 844
internal_value=0.12849 0.0765122 0.163662 0.0335403 0.143493 0.0810371 0.137842 0.12535 0.00669413 -0.00662701 0.0907744 0.142329 0.0818038 -0.0359014 0.0798123 0.181995 0.165265 0.191688 0.0690765 0.0858356 0.0710674 0.162442 0.142213 0.0858409 0.111251 0.176569 0.062543 0.0446176 0.41055 0.137738
internal_weight=17052.1 6881.89 10170.3 4192.29 2689.6 695.242 5293.35 4234.9 2693.86 2219.83 1388.29 420.695 1498.43 1287.87 1492.58 117.667 1994.35 4876.91 474.023 112.73 1374.91 113.993 2846.61 428.626 341.752 145.986 195.766 186.177 9.5897 84.4626
internal_count=104981 76047 28934 63537 12510 6399 22964 20117 46340 39857 8623 2570 17197 26113 17178 1077 6111 5970 6483 507 16101 1067 11494 5713 4481 1157 3324 3212 112 1137
is_linear=0
shrinkage=0.1


Tree=5
num_leaves=31
num_cat=0
split_feature=15 25 15 21 25 14 21 24 12 20 30 4 17 18 25 25 22 22 24 25 25 27 19 14 25 23 26 14 18 25
split_gain=2437.96 986.206 818.297 561.167 324.86 310.492 225.201 220.465 220.075 243.271 199.683 170.908 170.507 169.08 147.272 163.356 153.873 144.04 136.688 146.291 131.631 149.789 203.881 115.879 109.403 110.528 110.03 109.343 99.015 94.7359
threshold=0.13780588868461915 89.500000000000014 0.44328973814309264 2.5000000000000004 82.500000000000014 0.089186122006941981 71.500000000000014 223.45000000000002 0.47981063240014865 21.500000000000004 1.0000000180025095e-35 1.0000000180025095e-35 242.76761135891783 0.13784118004075088 25.500000000000004 54.500000000000007 1197.5000000000002 3559.5000000000005 91.595000000000013 18.500000000000004 11.500000000000002 160.07500000000002 418.23000000000008 0.09259000816907112 98.500000000000014 6.5000000000000009 0.63265000000000016 0.03860434744594736 0.02823962330423949 66.500000000000014
decision_type=2 2 2 2 2 2 2 2 2 2 2 2 2 2 2 2 2 2 2 2 2 2 2 2 2 2 2 2 2 2
left_child=4 2 8 7 23 13 12 10 18 -10 27 -7 24 14 20 -16 -17 -11 19 -2 21 22 -5 -1 25 -3 -27 28 -4 -12
right_child=1 6 3 5 -6 11 -8 -9 9 17 29 -13 -14 -15 15 16 -18 -19 -20 -21 -22 -23 -24 -25 -26 26 -28 -29 -30 -31
leaf_value=0.11846128359958566 0.099990050310244216 0.17025472130861996 -0.05780208791972407 0.90270998342216535 0.17351143208642295 0.031868415054500214 -0.025589295719841351 0.20914153462996588 0.13859835797315043 0.095247259665151338 0.02087114609840262 0.14549040661062038 0.024526868606269674 0.13738459680466253 -0.067069297310163062 0.074568645373847067 -0.02198227692822791 0.002709439498554221 0.15065928035785503 -0.030290553651103825 0.055359056452638333 -0.025612933434527693 -0.10673327970746178 0.17164544592963871 0.19182969604906566 0.050025127976708078 0.13361815845826178 0.13894536214388634 0.10138381425963394 0.074020271122022072
leaf_weight=2110.7469060719013 131.04534685611725 649.54919201135635 59.221143536269665 4.106754355132578 4273.3493034392595 295.4341847486794 80.975746165961027 124.07114150747657 1681.2226322889328 1003.0665959715843 622.71369387954473 239.87160535156727 113.19560270756483 85.529359634965658 579.45542679354548 215.93558697029948 700.63425422087312 202.09682573005557 90.987442590296268 251.80524624139071 574.17811320722103 426.87789503112435 3.9018687456846237 508.34140295535326 492.36580815166235 195.66284851357341 806.45793565362692 513.2058887258172 114.85831482335925 726.78661803156137
leaf_count=6983 654 1334 640 34 3841 3966 980 540 6693 4427 9934 2164 912 769 14646 2151 11456 1332 455 2245 6905 6735 67 1083 1187 1338 2314 3082 939 5175
internal_value=0.109895 0.0806439 0.0650631 0.040538 0.156515 0.0134502 0.138264 0.0797236 0.10365 0.114019 0.0718401 0.0827827 0.144142 -0.000876104 -0.00559663 -0.0255097 0.000764249 0.0797294 0.0404864 0.014303 0.0239262 -0.0175743 0.410901 0.128784 0.150457 0.138123 0.117297 0.115715 0.0472294 0.0494951
internal_weight=17877.7 10985.2 8647.01 5286.78 6892.44 3125.93 2338.21 2160.86 3360.22 2886.39 2036.79 535.306 2257.23 2590.62 2505.09 1496.03 916.57 1205.16 473.838 382.851 1009.06 434.887 8.00862 2619.09 2144.04 1651.67 1002.12 687.285 174.079 1349.5
internal_count=104981 93074 85009 69203 11907 48893 8065 20310 15806 12452 19770 6130 7085 42763 41994 28253 13607 5759 3354 2899 13741 6836 101 8066 6173 4986 3652 4661 1579 15109
is_linear=0
shrinkage=0.1


Tree=6
num_leaves=31
num_cat=0
split_feature=15 25 15 25 12 25 25 21 22 25 25 25 18 25 25 14 24 20 17 24 20 14 22 22 27 27 18 22 17 12
split_gain=2016.18 758.709 703.842 344.232 326.013 275.212 384.086 264.744 206.512 191.805 264.564 161.612 160.32 175.462 134.575 129.256 117.188 108.384 118.344 112.8 103.357 106.868 105.846 128.573 104.983 127.965 101.462 101.39 100.526 109.717
threshold=0.13780588868461915 74.500000000000014 0.44328973814309264 82.500000000000014 0.47981063240014865 26.500000000000004 48.500000000000007 1.0000000180025095e-35 1585.5000000000002 25.500000000000004 47.500000000000007 90.500000000000014 0.0044846068688673265 98.500000000000014 10.500000000000002 0.036808099846100756 48.335000000000008 49.500000000000007 -212.66074463870467 11.115 20.500000000000004 0.084504348502119533 4176.5000000000009 4131.5000000000009 321019.24500000005 389951.13500000007 0.00600312287177292 1572.5000000000002 -294.08599679267871 0.00018574789723854797
decision_type=2 2 2 2 2 2 2 2 2 2 2 2 2 2 2 2 2 2 2 2 2 2 2 2 2 2 2 2 2 2
left_child=3 2 9 26 7 14 -7 17 27 -2 -11 15 -9 28 -4 -6 -17 18 -3 -19 21 -16 23 -22 -23 -26 -1 -8 -14 -30
right_child=1 4 5 -5 11 6 8 12 -10 10 -12 -13 13 -15 20 16 -18 19 -20 -21 22 24 -24 -25 25 -27 -28 -29 29 -31
leaf_value=0.067772024119451588 0.10622623398503839 0.14706620559959707 0.010368445086413663 0.15517390069336304 0.04964182810830553 -0.071164702825265103 0.057993620306630939 -0.070553067501314237 -0.019989628177107407 -0.022276291724593722 0.082134040343242676 0.14000489975373728 0.12410379068318783 0.15561238363846069 0.074353158844365608 0.091412024715739754 0.14596519245684045 0.63405694294031167 0.0079135381536281236 0.19783296025959152 0.047735026854405116 0.1292529288852958 -0.076088528785471565 0.69461491473160064 0.68051718152738028 0.20581209238144613 0.11863652430618998 0.4208159479491147 0.36330244621541041 -0.00050889324423951897
leaf_weight=473.60573904961348 1655.1875814571977 228.87245950847864 655.43727683275938 4298.5260063409805 456.02953846752644 647.00386930629611 648.56203532218933 147.31107081472874 569.5885608792305 331.38355255126953 906.68878388404846 1449.3145260512829 82.985067505389452 117.68792924657464 518.7809751778841 1201.7875401228666 585.66564908623695 7.7595791965723029 83.383311860263348 25.109381727874279 388.16956394165754 90.783172611147165 76.031149283051491 3.0970795564353457 8.3178619295358676 17.896975159645081 2280.7430885359645 7.7945941202342501 8.4279107600450498 504.39785737916827
leaf_count=2145 5265 681 9332 3841 2791 16572 7763 2005 11814 4033 4614 2268 508 713 5503 5487 2029 26 480 98 4314 707 1036 22 18 101 5921 77 17 4800
internal_value=0.0954485 0.0694923 0.0471618 0.137489 0.0992349 0.0178454 -0.00882947 0.0540918 0.0240685 0.083958 0.0541875 0.113977 0.024424 0.0440332 0.0462562 0.0971627 0.109287 0.128089 0.109908 0.300815 0.0675804 0.0938233 0.0318757 0.0528554 0.180156 0.356434 0.10989 0.0623023 0.0219935 0.00547008
internal_weight=18476.3 11423.5 6524.72 7052.87 4898.73 3631.46 1872.95 1205.93 1225.95 2893.26 1238.07 3692.8 860.81 713.499 1758.51 2243.48 1787.45 345.125 312.256 32.869 1103.08 635.779 467.298 391.267 116.998 26.2148 2754.35 656.357 595.811 512.826
internal_count=104981 93074 71171 11907 21903 57259 36226 9328 19654 13912 8647 12575 8043 6038 21033 10307 7516 1285 1161 124 11701 6329 5372 4336 826 119 8066 7840 5325 4817
is_linear=0
shrinkage=0.1


Tree=7
num_leaves=31
num_cat=0
split_feature=15 14 25 22 25 17 15 15 26 25 21 24 17 15 30 25 25 14 18 12 19 27 13 28 17 18 26 27 20 24
split_gain=1702.78 618.756 355.869 336.646 263.784 181.359 181.608 170.329 174.378 155.386 151.879 122.448 117.16 114.679 114.369 99.2048 159.273 95.8286 97.2415 86.4326 115.735 85.8823 82.3713 95.0796 83.618 81.7387 86.4872 80.7184 95.9174 77.4396
threshold=0.13780588868461915 0.052679842165218434 82.500000000000014 3500.5000000000005 89.500000000000014 -292.67945124164083 0.44328973814309264 0.44328973814309264 0.85705000000000009 84.500000000000014 34.500000000000007 7.9650000000000007 242.76761135891783 0.44328973814309264 1.0000000180025095e-35 25.500000000000004 57.500000000000007 0.28536610881402563 0.24219764610389613 0.47981063240014865 4.2250000000000005 638791.01000000013 0.00021432449681370918 0.22255830725974171 -225.65185676991888 0.0043289912854642676 0.56745000000000012 38251.290000000008 8.5000000000000018 5.3050000000000006
decision_type=2 2 2 2 2 2 2 2 2 2 2 2 2 2 2 2 2 2 2 2 2 2 2 2 2 2 2 2 2 2
left_child=2 3 21 5 7 11 -7 -3 10 15 17 -2 29 -5 -15 22 -17 18 27 20 -11 25 -8 24 -24 -1 -27 -9 -29 -6
right_child=1 4 -4 13 12 6 9 8 -10 19 -12 -13 -14 14 -16 16 -18 -19 -20 -21 -22 -23 23 -25 -26 26 -28 28 -30 -31
leaf_value=0.042058835562204841 0.014250877783324784 0.09800828418322205 0.1406854625139371 0.028892134424655182 0.015884035973094148 0.06825901043678273 0.083181535676494944 0.015020161396199511 0.12614323887573789 0.58249899785637616 -0.021712711971051582 0.1060583330830409 -0.028026358318254618 0.19971715100077406 -0.038242979027138191 -0.062224745096731038 0.018221709229229038 0.2472330779959942 0.11305328078896709 0.090585748507603439 0.010243200652033331 0.14788116284133665 -0.077044257318021975 -0.053049865881033248 0.06575684670460917 0.15966572148919869 0.090074994919782089 0.095260201106856277 0.031840554001675771 0.13247890134406679
leaf_weight=319.53025496006012 177.20278000459075 1541.5224564857781 4268.2993619590998 538.26896212249994 59.513177409768105 1585.2797330617905 260.50280765816569 590.37192052602768 304.53166626021266 3.5840000137686721 292.26050628721714 806.36102705821395 50.194939099252224 20.774535153061152 727.29993618652225 376.04109363630414 712.27277890220284 25.825453359633684 235.64631708338857 458.37103499472141 254.12914723157883 278.20138341933489 48.407222427427769 148.56917836144567 268.15358595177531 195.49087400734425 2065.2988051325083 455.36860974133015 500.69555511698127 1330.1599983200431
leaf_count=1517 1319 5394 3841 3355 219 6991 2817 6409 2116 22 4682 4818 311 175 13283 9959 8112 62 1118 1454 2639 549 576 2051 2988 410 5590 3939 5874 2391
internal_value=0.083821 0.0604646 0.122399 0.0394076 0.0854277 0.0509406 0.0417205 0.07206 0.0554259 0.0250919 0.0451717 0.0895179 0.122064 -0.00630729 -0.0316347 0.00952104 -0.00957466 0.055984 0.0532125 0.0645352 0.0182015 0.0950928 0.038161 0.0129466 0.0439203 0.0894013 0.0960925 0.0440939 0.062047 0.127486
internal_weight=18898.1 11771.3 7126.82 6385.22 5386.09 5098.87 4115.31 3946.22 2404.7 2530.03 2100.17 983.564 1439.87 1286.34 748.074 1813.95 1088.31 1807.91 1782.08 716.084 257.713 2858.52 725.633 465.13 316.561 2580.32 2260.79 1546.44 956.064 1389.67
internal_count=104981 93074 11907 60559 32515 43746 37609 29594 24200 30618 22084 6137 2921 16813 13458 26503 18071 17402 17340 4115 2661 8066 8432 5615 3564 7517 6000 16222 9813 2610
is_linear=0
shrinkage=0.1


Tree=8
num_leaves=31
num_cat=0
split_feature=15 25 15 25 18 30 18 14 12 20 21 14 14 17 22 24 25 24 20 12 26 27 18 22 12 8 25 14 23 24
split_gain=1460.06 519.422 371.52 364.766 290.536 166.987 137.377 152.253 136.037 153.826 124.479 108.156 105.402 99.7889 96.4646 89.1473 92.3231 93.9854 95.8945 87.4878 92.7593 106.129 102.749 86.4925 84.7202 86.9975 82.1988 106.49 73.8444 73.6579
threshold=0.13780588868461915 89.500000000000014 0.44328973814309264 84.500000000000014 0.0089150275504783633 1.0000000180025095e-35 0.16621886485607418 0.28536610881402563 0.47981063240014865 21.500000000000004 71.500000000000014 0.15887342087677145 0.058156613220341789 242.76761135891783 5372.5000000000009 91.595000000000013 16.500000000000004 9.5450000000000017 6.5000000000000009 0.47981063240014865 0.85925000000000007 4663431.4250000007 0.011694601783620265 619.50000000000011 0.47981063240014865 1.0000000180025095e-35 27.500000000000004 0.084504348502119533 61.500000000000007 48.335000000000008
decision_type=2 2 2 2 2 2 2 2 2 2 2 2 2 2 2 2 2 2 2 2 2 2 2 2 2 2 2 2 2 2
left_child=3 2 8 12 24 -6 7 19 15 -10 11 13 23 -3 28 16 17 -2 -19 26 21 -21 -22 -1 29 -26 27 -7 -11 -4
right_child=1 10 4 -5 5 6 -8 -9 9 14 -12 -13 -14 -15 -16 -17 -18 18 -20 20 22 -23 -24 -25 25 -27 -28 -29 -30 -31
leaf_value=0.10277229235105673 -0.12763029905971821 0.094773180301906637 -0.060391687854780267 0.13046058267053345 0.080930127163234292 -0.0060355619143954136 0.08630537492722351 0.27385169699944767 0.092026021634371305 -0.13870410529336913 -0.028902330852217797 0.15899851789802322 0.10604295142713367 -0.0028739693684618609 -0.091682413566223614 0.10042339582446469 -0.033942637811800257 -0.048422302653573404 0.15693815105945585 0.018603807028348528 0.27709698756657425 0.20556459046734352 0.064905299751192497 0.055390902290076427 0.012630412849719778 -0.055304642168895704 -0.049811262937407758 0.16660643748628828 0.056108567558790116 0.43045366936687418
leaf_weight=547.63860209286213 21.169656097888947 2109.0619984343648 301.24328830465674 3921.0228703469038 835.85267268866301 164.75826213881373 386.08819852024317 23.888370458036661 1932.4948619864881 19.756549257785082 81.127321403473616 252.49971900135279 1370.2961737215519 110.12017575651407 47.662235550582409 107.79753163829446 284.47940919175744 31.130958199501038 84.34501351416111 1870.5865366831422 25.426346473395824 30.863015469163656 222.64804233238101 1299.4189037233591 1264.4770829714835 221.5278038084507 305.7401571534574 45.62170223146677 1284.6675943955779 3.0885870940983287
leaf_count=1111 126 5942 5642 3467 4624 1836 2373 44 6693 119 980 246 2816 897 352 455 2326 161 286 22395 274 265 2093 4513 18193 6030 5129 261 5288 44
internal_value=0.0741346 0.0529295 0.0421837 0.109984 0.0260239 0.0412957 0.0305244 0.0225169 0.0663452 0.0739244 0.0929832 0.0969838 0.085029 0.0899277 0.0480522 0.0192789 -0.00149208 0.066066 0.101575 0.0202646 0.0291418 0.0216384 0.0866539 0.0694391 -0.00734149 0.00250292 -0.016707 0.0314025 0.053158 -0.0554102
internal_weight=19206.5 12068.1 9515.31 7138.38 5701.81 3911.47 3075.62 2689.53 3813.5 3284.58 2552.81 2471.68 3217.35 2219.18 1352.09 528.923 421.125 136.646 115.476 2665.64 2149.52 1901.45 248.074 1847.06 1790.34 1486 516.12 210.38 1304.42 304.332
internal_count=104981 93074 85009 11907 69203 39294 34670 32297 15806 12452 8065 7085 8440 6839 5759 3354 2899 573 447 32253 25027 22660 2367 5624 29909 24223 7226 2097 5407 5686
is_linear=0
shrinkage=0.1


Tree=9
num_leaves=31
num_cat=0
split_feature=15 25 25 15 22 12 18 12 18 13 21 17 25 21 26 17 27 25 22 14 29 25 25 13 3 27 13 28 27 13
split_gain=1260.89 418.464 373.752 295.816 231.133 173.184 185.57 143.534 132.843 129.719 126.913 114.687 114.647 106.651 122.83 107.1 101.58 98.6412 88.7112 89.4764 86.9818 127.03 180.248 117.797 104.702 96.2356 93.5748 85.8245 81.7528 80.5208
threshold=0.13780588868461915 88.500000000000014 90.500000000000014 0.44328973814309264 1874.5000000000002 0.47981063240014865 0.024447090783215945 0.47981063240014865 0.0044846068688673265 0.00032863089511435406 19.500000000000004 172.11355123948184 24.500000000000004 4.5000000000000009 0.69945000000000013 -283.42680338977544 375006.61500000005 41.500000000000007 51.500000000000007 0.061726672112714077 2.5000000000000004 65.500000000000014 26.500000000000004 0.00018574789723854797 1.0000000180025095e-35 51428.260000000002 4.286489936274184e-05 1.6799936005440219 131974.90000000002 9.0492565321343882e-05
decision_type=2 2 2 2 2 2 2 2 2 2 2 2 2 2 2 2 2 2 2 2 2 2 2 2 2 2 2 2 2 2
left_child=2 3 10 13 20 -6 12 8 -3 -10 18 16 -7 -2 -15 -16 28 -14 -1 -20 23 22 27 25 -25 29 -27 -22 -8 -5
right_child=1 7 -4 4 5 6 11 -9 9 -11 -12 -13 17 14 15 -17 -18 -19 19 -21 21 -23 -24 24 -26 26 -28 -29 -30 -31
leaf_value=0.12237542612444363 0.079524011581451323 -0.05676468105758984 0.12931411919626584 0.16248558435619384 -0.056959789446015166 0.028711575567669817 0.10643943294577639 0.096338778555745644 0.018181227151048349 0.097494342993366914 0.040274803634988185 -0.040682788811368865 -0.08829261194124971 0.00075258439230350938 0.11214291847786534 0.046566579686686108 0.22713457645910082 -0.0079745350334363627 0.06725092861121347 0.10112824453918268 0.032778521898622646 0.049151702302438212 -0.04624844059942599 0.13196292701072496 0.029775710206630425 -0.11397734267496469 0.35334731796618901 0.48812239278874725 -0.087157271925294669 -0.023701796791727858
leaf_weight=649.64377637952566 1428.0044132731855 106.34164529666305 2643.16830265522 70.819079730659723 471.93542677536607 638.51035798713565 140.99233430624008 1882.6250573992729 373.94867672026157 459.72119368240237 630.2147016748786 57.904559291899204 202.81072633899748 496.98854343220592 293.30432751402259 1650.8615112155676 61.177030876278877 621.44674239307642 1812.4269459545612 1368.1622411757708 713.37463497743011 1450.5620957501233 433.51584882289171 123.94042398780584 524.97735078819096 4.9584895316511384 31.532065808773041 4.1635095737874499 25.804759692400694 34.564523961395025
leaf_count=754 4532 1355 2139 567 8692 8418 1284 3165 2499 1971 2285 729 5375 2870 1004 7274 326 11395 4503 2226 6953 8512 9921 721 4586 64 186 36 288 351
internal_value=0.0659706 0.0466043 0.0995167 0.0365427 0.0218782 -0.00320338 0.0113047 0.0804044 0.0484915 0.0619179 0.0818594 0.0849933 -0.00309673 0.0578166 0.0451184 0.0564597 0.116915 -0.027737 0.0887016 0.0818236 0.0382959 0.0294678 0.00466202 0.0673395 0.049293 0.149883 0.289845 0.0354207 0.0764886 0.101418
internal_weight=19408.4 12304.8 7103.62 9482.15 5612.99 2220.58 1748.65 2822.64 940.012 833.67 4460.45 285.879 1462.77 3869.16 2441.15 1944.17 227.974 824.257 3830.23 3180.59 3392.41 2601.62 1151.05 790.792 648.918 141.874 36.4906 717.538 166.797 105.384
internal_count=104981 93074 11907 84084 68404 36507 27815 8990 5825 4470 9768 2627 25188 15680 11148 8278 1898 16770 7483 6729 31897 25422 16910 6475 5307 1168 250 6989 1572 918
is_linear=0
shrinkage=0.1


Tree=10
num_leaves=31
num_cat=0
split_feature=25 15 15 12 18 21 18 12 25 21 25 25 13 21 14 25 27 27 18 14 19 4 21 29 25 14 27 28 21 19
split_gain=1098.99 505.418 431.326 170.264 163.416 147.358 145.523 105.817 103.213 94.45 89.4177 175.96 89.0696 86.6061 84.8033 82.9352 78.2374 82.1449 92.8055 73.1485 71.2231 70.8592 111.881 145.113 70.7576 78.1173 70.5146 76.3127 104.235 79.8389
threshold=82.500000000000014 0.44328973814309264 0.13780588868461915 0.47981063240014865 0.067053856279382137 17.500000000000004 0.025348447991429764 0.11167735113973006 98.500000000000014 17.500000000000004 25.500000000000004 52.500000000000007 0.00038578409426467654 84.500000000000014 0.065265721552335329 24.500000000000004 55.270000000000003 5654.0700000000006 0.013836926137396973 0.018515188761384301 335.96500000000009 1.0000000180025095e-35 283.50000000000006 1.0000000180025095e-35 10.500000000000002 0.019958175774779683 43041.265000000007 0.015748378932589405 80.500000000000014 19378.825000000001
decision_type=2 2 2 2 2 2 2 2 2 2 2 2 2 2 2 2 2 2 2 2 2 2 2 2 2 2 2 2 2 2
left_child=1 4 14 5 7 12 10 -1 16 -9 21 -12 -4 19 -2 24 -5 18 -18 -13 -6 -3 -23 -24 25 -11 -21 29 -29 -28
right_child=2 6 3 8 20 -7 -8 9 -10 15 11 13 -14 -15 -16 -17 17 -19 -20 26 -22 22 23 -25 -26 -27 27 28 -30 -31
leaf_value=-0.037372109161311527 0.095142931164247449 0.00051128816865563388 0.020015432142163239 0.15593949580604707 0.038141084489519132 -0.029615918271930438 0.035357840835146231 0.06050110703653673 0.129972792176968 -0.11694163515870998 -0.063841046795768838 -0.070526594910582913 0.083449761110424361 -0.087046286399011755 0.1243603720197059 0.0075175602114943276 -0.043187049453026462 0.075007637791801085 0.059335121424278818 -0.0049988569329310071 0.099179058019718033 0.041770682806525544 1.1164712983212308 0.19546322610340272 0.074312907757388788 0.033666377761455354 -0.023028948275907644 0.072863776245695372 0.84954528298962839 0.54424801119952926
leaf_weight=138.44407314434648 1879.5655462145805 744.01874426752329 432.02686296403408 103.21912411600351 232.53968833386898 289.93747444823384 1886.8836541362107 3558.8062727786601 330.19023555517197 38.140117898583412 520.50539737008512 89.76303369551897 453.91708558797836 89.785817511379719 2107.0538071393967 768.1769145168364 131.71494878083467 2099.3719742372632 267.84793568402529 430.87365199252963 1074.5781823024154 466.08815936371684 2.0288617238402358 10.90963428467512 564.45627337694168 354.9016223102808 132.03292581066489 329.39161785691977 1.7370410785078991 2.5284980461001387
leaf_count=785 2145 9916 2578 121 647 3491 17197 11115 307 188 15541 1629 1765 1987 1696 5249 525 5170 682 5628 2200 5494 9 128 1606 1174 1996 3965 25 22
internal_value=0.0589574 0.0390009 0.0871525 0.0644134 0.0565809 0.0322649 0.0138627 0.0489306 0.0773051 0.0511916 -0.000521658 -0.0161076 0.0525163 0.00698057 0.110585 0.0319929 0.070622 0.0670979 0.0255389 0.0155399 0.0883202 0.019825 0.0498227 0.339885 0.0516288 0.0190516 0.0241568 0.0511326 0.0769381 -0.0123694
internal_weight=19531.4 11436.6 8094.84 4108.23 6730.04 1175.88 4706.55 5422.93 2932.34 5284.48 2819.66 1596.62 885.944 1076.11 3986.62 1725.67 2602.15 2498.93 399.563 986.327 1307.12 1223.05 479.027 12.9385 957.498 393.042 896.564 465.69 331.129 134.561
internal_count=104981 86501 18480 14639 22964 7834 63537 20117 6805 19332 46340 30793 4343 15252 3841 8217 6498 6377 1207 13265 2847 15547 5631 137 2968 1362 11636 6008 3990 2018
is_linear=0
shrinkage=0.1


Tree=11
num_leaves=31
num_cat=0
split_feature=15 25 14 22 25 12 24 25 17 25 25 24 20 7 25 14 22 21 25 13 22 25 21 26 26 15 17 19 19 22
split_gain=964.298 366.224 342.926 169.529 141.024 121.076 107.782 104.98 98.8408 108.712 220.308 98.6734 95.4087 92.2361 255.451 83.2201 83.0844 82.3764 82.1854 86.2874 108.462 73.5348 73.1239 98.331 107.356 82.1716 77.3886 115.963 82.2371 74.82
threshold=0.13780588868461915 90.500000000000014 0.052679842165218434 3500.5000000000005 93.500000000000014 0.11167735113973006 18.665000000000003 98.500000000000014 -292.67945124164083 25.500000000000004 43.500000000000007 7.9650000000000007 2.5000000000000004 1.0000000180025095e-35 26.500000000000004 0.28536610881402563 23.500000000000004 19.500000000000004 9.5000000000000018 0.010620969508768256 1634.5000000000002 65.500000000000014 21.500000000000004 0.89115000000000011 0.90085000000000015 0.44328973814309264 -277.13513292101089 386.38500000000005 329.59500000000008 2521.5000000000005
decision_type=2 2 2 2 2 2 2 2 2 2 2 2 2 2 2 2 2 2 2 2 2 2 2 2 2 2 2 2 2 2
left_child=1 6 3 5 13 -2 17 8 11 18 -11 -7 -12 15 -15 22 -8 -1 19 -10 -21 -14 25 26 -25 -4 27 28 -24 -28
right_child=2 -3 4 -5 -6 7 16 -9 9 10 12 -13 21 14 -16 -17 -18 -19 -20 20 -22 -23 23 24 -26 -27 29 -29 -30 -31
leaf_value=0.053596581473931974 -0.049541228271981937 0.11381051961736831 0.078862407535953971 -0.011207580503508511 0.091392790916636601 -0.012900368052682819 0.12269306357214281 0.098671757388986078 -0.00065805279211880881 -0.073926834069419883 -0.035738141766327801 0.071182393879803865 -0.0084337567293297482 0.061239356706254813 -0.074807528129540043 0.15157697940123438 0.071031327479407144 -0.01514103179172078 0.05957914681039389 -0.12709989184469178 0.26021057267162834 0.037282674989313834 0.15383621824754556 0.32060021382541704 0.056454993226678275 0.04624141682594287 0.04061547318411568 0.0082794335027372955 0.54103388692663956 -0.032337853780720148
leaf_weight=1414.226885676384 190.02438764460385 2462.1719623357058 1157.6085375845432 1301.8986616078764 871.26706804335117 167.83844749815762 355.37324941158295 224.16033532097936 481.93443370610476 282.48887743987143 274.18416536971927 828.60062647238374 452.62271805293858 371.47819891944528 219.60746542364359 83.642976902425289 2510.2037836909294 198.86254741251469 1014.6947458311915 9.8373870961368066 27.283107846975327 1580.1895971149206 42.344971269369125 21.568616092205048 53.682777367532253 2319.3371405210346 233.0308023430407 80.161330226808786 6.3016294911503783 354.35257834754884
leaf_count=3256 2147 2139 2809 16813 1628 1236 349 751 4074 6559 2355 4482 7136 2136 4248 146 5201 962 5902 92 112 8900 242 52 319 14603 1823 581 23 3905
internal_value=0.0528789 0.0828304 0.0364452 0.0212603 0.0542975 0.0288987 0.065799 0.031688 0.0287552 0.0219247 0.00942815 0.0570196 0.0196349 0.0477591 0.0106935 0.0527933 0.0774381 0.0451226 0.043023 0.0106576 0.157569 0.0271035 0.0508575 0.0234237 0.132165 0.0571022 0.0119981 0.0821943 0.203993 -0.0033953
internal_weight=19591 6940.84 12650.1 6835.76 5814.38 5533.86 4478.67 5343.83 5119.67 4123.24 2589.49 996.439 2307 4943.12 591.086 4352.03 2865.58 1613.09 1533.75 519.055 37.1205 2032.81 4268.39 791.443 75.2514 3476.95 716.191 128.808 48.6466 587.383
internal_count=104981 11907 93074 60559 32515 43746 9768 41599 40848 35130 24950 5718 18391 30887 6384 24503 5550 4218 10180 4278 204 16036 24357 6945 371 17412 6574 846 265 5728
is_linear=0
shrinkage=0.1


Tree=12
num_leaves=31
num_cat=0
split_feature=25 15 15 18 30 18 14 21 12 14 26 21 25 18 17 26 19 25 17 14 17 26 17 27 27 25 16 22 22 17
split_gain=855.49 438.559 254.819 182.845 144.766 112.222 104.091 96.9243 88.59 95.2621 86.0219 82.4297 70.9 68.802 65.1279 63.6038 78.0861 63.4875 93.7033 63.1708 59.5968 59.1192 58.6651 65.2893 62.383 64.9562 58.3621 58.3298 75.6725 95.1223
threshold=89.500000000000014 0.44328973814309264 0.13780588868461915 0.060869590202916934 1.0000000180025095e-35 0.13784118004075088 0.15887342087677145 17.500000000000004 0.47981063240014865 0.084504348502119533 0.64085000000000014 34.500000000000007 24.500000000000004 0.029981977206467007 -279.57742439965779 0.63525000000000009 329.59500000000008 98.500000000000014 365.0185721423797 0.061726672112714077 669.40173591290238 0.89595000000000014 -298.675349148355 39749.35500000001 18514.900000000005 2.5000000000000004 0.021162327277231923 1806.5000000000002 1651.5000000000002 -299.67466546614077
decision_type=2 2 2 2 2 2 2 2 2 2 2 2 2 2 2 2 2 2 2 2 2 2 2 2 2 2 2 2 2 2
left_child=1 3 -2 7 22 8 11 19 9 27 15 17 -9 21 -5 16 -11 18 -4 20 -1 -14 23 24 25 -3 -27 28 -6 -30
right_child=2 4 6 14 5 -7 -8 12 -10 10 -12 -13 13 -15 -16 -17 -18 -19 -20 -21 -22 -23 -24 -25 -26 26 -28 -29 29 -31
leaf_value=0.042942048990649906 0.10485519143682698 0.44441434367838373 0.05396497543651349 0.10141994716398239 -0.02747118954835804 0.051296632018059722 0.12211826111545357 0.040930038214263241 0.0087696395126606302 -0.11336436001786172 -0.044018520273585736 -0.013956181538886845 -0.014132490719416305 0.076614984799896993 0.063360917408826281 0.50471523300394849 0.14650252189602955 0.091327717032504183 -0.094970247434088662 0.065688902362936216 -0.052286962014748986 0.10738474170286123 0.032891880193993576 0.12164584321986303 -0.10323194577028638 0.13353196708029941 -0.028352340496227119 -0.069532422273104175 0.53407994106699952 0.060541814841672231
leaf_weight=2805.5136967785656 2553.2466162890196 4.3473980203270903 1689.5776797160506 666.90559580922127 225.5642861071974 523.85773042216897 248.20182609185576 1005.1940157860518 3732.6936065647751 14.383363576605914 58.426230287179351 165.74549337849021 760.32112186402082 109.95210118219256 1380.0600898228586 4.0065959375351659 58.97017528116703 480.33500241860747 43.326788753271103 1563.6881492957473 67.294310614466667 42.261525347828865 703.14810178428888 189.95928278751671 27.973037268966436 42.435766810551286 46.864009361714125 380.18328363448381 5.1292682774364975 24.523510109633207
leaf_count=8635 2368 8 4576 909 2947 2966 264 3073 48264 207 709 1684 5324 431 2954 22 425 1158 383 3537 308 174 4053 705 178 156 257 7887 31 388
internal_value=0.0474945 0.0349903 0.0823578 0.0497682 0.0144438 0.00749008 0.0604936 0.0413949 0.00239482 -0.0284605 0.0475679 0.0540642 0.0226099 0.00242949 0.0757606 0.116739 0.0955471 0.0591582 0.0502412 0.0495149 0.0407113 -0.00773377 0.0488976 0.0850182 0.0278092 0.0669521 0.048576 -0.0447079 -0.00772825 0.142453
internal_weight=19624.1 14443.7 5180.43 8401.19 6042.47 5027.74 2627.19 6354.22 4503.88 771.187 135.786 2378.98 1917.73 912.535 2046.97 77.3601 73.3535 2213.24 1732.9 4436.5 2872.81 802.583 1014.73 311.579 121.62 93.6472 89.2998 635.4 255.217 29.6528
internal_count=104981 94548 10433 25345 69203 63846 8065 21482 60880 12616 1363 7801 9002 5929 3863 654 632 6117 4959 12480 8943 5498 5357 1304 599 421 413 11253 3366 419
is_linear=0
shrinkage=0.1


Tree=13
num_leaves=31
num_cat=0
split_feature=25 15 16 18 18 17 17 21 12 22 29 20 24 19 14 12 7 28 25 25 26 12 25 14 25 14 14 23 29 14
split_gain=749.751 362.692 241.635 172.481 130.629 127.258 89.7032 89.2529 88.2302 126.077 86.7274 81.7551 76.228 74.5722 97.9588 69.2482 66.9503 65.6881 64.4462 123.832 77.0655 67.8622 62.6251 62.5577 61.7471 61.7427 73.8865 70.1625 62.1971 61.5517
threshold=90.500000000000014 0.44328973814309264 0.064595324048992458 0.060869590202916934 0.0080732308062352789 4.1908963207937431 -298.675349148355 1.0000000180025095e-35 0.47981063240014865 1685.5000000000002 34.500000000000007 2.5000000000000004 8.7250000000000032 728.73000000000013 0.28536610881402563 0.11167735113973006 1.0000000180025095e-35 0.12402150608208627 24.500000000000004 48.500000000000007 0.92185000000000017 0.47981063240014865 26.500000000000004 0.1576595685286922 70.500000000000014 0.038172389078138129 0.065265721552335329 619.50000000000011 33.500000000000007 0.079938941104357508
decision_type=2 2 2 2 2 2 2 2 2 2 2 2 2 2 2 2 2 2 2 2 2 2 2 2 2 2 2 2 2 2
left_child=1 3 5 7 17 23 11 12 9 -4 -11 29 -1 14 -8 -9 -5 -3 -17 -20 21 -21 -18 -2 -23 -15 27 28 -27 -6
right_child=2 4 8 16 6 -7 13 15 -10 10 -12 -13 -14 25 -16 18 22 -19 19 20 -22 24 -24 -25 -26 26 -28 -29 -30 -31
leaf_value=0.014581535265130877 0.054154482234768077 -0.041914944819063486 0.094635024083331215 0.074467031200467312 0.030111584165575113 -0.014878495791602792 -0.0017342125722829599 -0.041102467832022954 0.11031706160800657 0.030330809819187787 -0.15389972444541616 0.36622597339852142 0.074476176221556251 -0.0042012090484313735 0.18853804666170992 0.046288533233906276 0.051402792702023414 0.0021160121578495819 -0.0167478986580742 -0.01247329205379338 0.11630293131416172 0.016328068921656714 -0.087093334323707847 0.11047304603287192 0.052363610187900991 0.085049253595810892 0.020788134524536362 -0.034336298336361912 -0.041930988976235262 0.089703319683951455
leaf_weight=272.48700908571482 1521.5919737145305 467.53585070930421 577.84888882189989 2010.155370824039 525.8310082424432 249.58369477838278 1761.2573625016958 128.32741561159492 1812.4544601589441 185.17531866207719 29.642926812171936 8.2487744614481908 965.06050789356232 435.58174549601972 27.479979179799557 2189.6792395561934 95.740168228745461 1230.7121022306383 603.77378784120083 322.30596638098359 108.48800851404667 826.25118362903595 49.545028727501631 226.60507455468178 1120.1408684700727 530.82242209464312 962.81207173131406 64.315758347511292 41.597073180601001 258.55369719304144
leaf_count=745 4241 8094 746 3394 3616 1793 19052 747 1561 536 161 8 1856 5500 40 5803 210 20039 4882 1626 198 3685 384 244 2192 4448 6886 928 433 933
internal_value=0.0427761 0.0319469 0.0780823 0.0451978 0.0137076 0.0519183 0.022431 0.0371086 0.0981466 0.0703186 0.0049087 0.053048 0.0612884 0.0160846 0.0011889 0.0314615 0.0697289 -0.0100059 0.0332624 0.0236941 0.0339658 0.0300285 0.00417297 0.0614546 0.0370664 0.0291768 0.0382662 0.0646948 0.0758217 0.0497546
internal_weight=19609.6 15006.7 4602.9 8691.95 6314.75 1997.78 4616.5 6536.51 2605.12 792.667 214.818 792.633 1237.55 3823.87 1788.74 5298.97 2155.44 1698.25 5170.64 2980.96 2377.19 2268.7 145.285 1748.2 1946.39 2035.13 1599.55 636.735 572.419 784.385
internal_count=104981 95699 9282 25722 69977 6278 41844 21734 3004 1443 697 4557 2601 37287 19092 19133 3988 28133 18386 12583 7701 7503 594 4485 5877 18195 12695 5809 4881 4549
is_linear=0
shrinkage=0.1


Tree=14
num_leaves=31
num_cat=0
split_feature=25 15 15 12 30 14 27 18 25 25 28 27 18 7 25 14 25 9 27 27 26 19 29 29 26 24 24 28 19 17
split_gain=660.384 358.751 231.57 129.542 105.938 93.0101 89.1091 84.419 77.5416 68.8513 67.0966 65.9578 65.7973 65.77 166.814 81.1244 63.2608 80.9516 74.2669 139.626 130.888 95.8176 63.6482 81.9994 84.3451 81.8549 128.081 100.432 77.6455 72.2165
threshold=82.500000000000014 0.13780588868461915 0.44328973814309264 0.47981063240014865 1.0000000180025095e-35 0.065265721552335329 571584.15000000002 0.0076050599701276735 98.500000000000014 97.500000000000014 0.41885358798953215 55.270000000000003 0.0048843824196633705 1.0000000180025095e-35 27.500000000000004 0.020767450026508386 25.500000000000004 1.0000000180025095e-35 45174.145000000011 60082.140000000007 0.81445000000000012 1381.3950000000002 17.500000000000004 12.500000000000002 0.75965000000000016 6.995000000000001 7.7350000000000012 0.8044878453193941 14612.795000000002 -283.42680338977544
decision_type=2 2 2 2 2 2 2 2 2 2 2 2 2 2 2 2 2 2 2 2 2 2 2 2 2 2 2 2 2 2
left_child=2 5 6 4 10 -2 13 16 11 -6 -3 -5 -11 15 -15 -1 22 -18 -19 20 21 -20 23 -4 25 29 -27 -28 -24 -25
right_child=1 3 7 8 9 -7 -8 -9 -10 12 -12 -13 -14 14 -16 -17 17 18 19 -21 -22 -23 28 24 -26 26 27 -29 -30 -31
leaf_value=0.0030322575625856057 0.068378539163768251 0.08818076725653172 0.010822458396118784 0.12761138467480787 -0.01602310302788788 0.1011399488336235 0.071279972241497291 0.015510110974502694 0.10115729397180495 -0.088904664343467915 -0.1118295631921076 0.044628878234476095 0.061249465207714786 0.036501393712429907 -0.051859037327061389 0.040845267534491116 -0.065496971311320068 -0.03609753872394994 -0.10917165761725665 0.012777609352117742 0.61059480714504411 0.4009683450925538 -0.043225636796520646 0.44313125272640957 -0.016378915882543782 0.77766516097950544 0.15046476623848068 0.78492836311736913 0.48963679590155795 -0.10824358609339774
leaf_weight=644.57113255187869 1677.6579400748014 227.89790860563517 393.06907038018107 99.521046459674835 721.10843614861369 1792.4276280552149 634.36328178271651 3488.5784750226885 302.86106452345848 33.231463044881821 18.104861751198769 2550.7834380343556 239.56095463782549 666.07993149757385 314.55665161833167 4737.353082627058 385.0806777998805 202.47187090851367 8.5684882514178771 107.5760740917176 8.0080779977142793 6.4559634979814282 214.96294669806957 3.0011768154799929 26.775814738124609 4.6711634472012511 25.533020287752155 2.7651250064373007 2.7697871103882781 11.392979197204111
leaf_count=2428 2145 492 5094 121 5802 1696 1631 37988 307 389 82 6377 1069 2029 3044 13832 11715 3103 137 1553 40 53 2949 26 352 23 305 6 24 169
internal_value=0.0386257 0.0615168 0.0238705 0.0418335 0.0147074 0.085301 0.03554 0.00717884 0.0532226 0.000165161 0.0734608 0.0477449 0.0429577 0.0319766 0.00815821 0.0363166 -0.0135355 -0.0342721 0.00182755 0.0606197 0.284072 0.110034 0.00820689 0.0290169 0.12548 0.205676 0.29254 0.212461 -0.0364471 0.00671789
internal_weight=19551.8 7663.15 11888.6 4193.07 1239.9 3470.09 6996.92 4891.68 2953.17 993.901 246.003 2650.3 272.792 6362.56 980.637 5381.92 1403.1 718.161 333.08 130.609 23.0325 15.0245 684.941 467.208 74.1393 47.3635 32.9693 28.2981 217.733 14.3942
internal_count=104981 18480 86501 14639 7834 3841 22964 63537 6805 7260 574 6498 1458 21333 5073 16260 25549 16601 4886 1783 230 190 8948 5975 881 529 334 311 2973 195
is_linear=0
shrinkage=0.1


Tree=15
num_leaves=31
num_cat=0
split_feature=25 15 16 18 14 22 26 21 12 13 18 14 12 22 29 14 29 27 13 25 18 3 27 27 25 14 28 27 13 21
split_gain=594.311 244.969 227.089 139.089 103.349 108.063 86.2789 73.935 73.401 79.4091 66.5147 62.4668 62.3357 86.3902 72.8471 62.3345 80.6516 79.5062 61.6461 57.5837 56.5269 57.9489 91.8607 78.0048 127.657 92.1892 68.8351 89.5649 96.2485 68.5979
threshold=90.500000000000014 0.44328973814309264 0.065522578453682409 0.076920997920997936 0.052679842165218434 1874.5000000000002 0.63525000000000009 17.500000000000004 0.47981063240014865 0.00021432449681370918 0.0038156732334769035 0.15887342087677145 0.47981063240014865 357.50000000000006 32.500000000000007 0.046989090089317752 26.500000000000004 108220.57000000002 0.00032863089511435406 2.5000000000000004 0.24219764610389613 1.0000000180025095e-35 20367.715000000004 21421.590000000004 57.500000000000007 0.070154323153552564 0.5396891548173065 104183.19000000002 0.0017336470408931143 33.500000000000007
decision_type=2 2 2 2 2 2 2 2 2 2 2 2 2 2 2 2 2 2 2 2 2 2 2 2 2 2 2 2 2 2
left_child=1 3 6 7 5 -3 10 -1 -7 15 -2 -8 13 -4 -15 16 17 -10 -5 -19 21 29 -23 24 25 -24 -25 28 -28 -6
right_child=2 4 12 18 20 8 11 -9 9 -11 -12 -13 -14 14 -16 -17 -18 19 -20 -21 -22 22 23 26 -26 -27 27 -29 -30 -31
leaf_value=0.036560194487695208 -0.095188867086033038 0.013407132095482721 0.1043512971609457 0.030826215569747385 0.07178308576940845 -0.064682083423130657 0.048782780589167019 0.013831321239991362 0.10293030967911519 -0.027938615913138024 0.020927665037237204 0.11037203924057933 0.10117005764914787 0.048473171842192152 -0.083535875867392181 -0.065527909108952037 -0.071863419927274477 0.31563685868885094 0.072139542455811709 -0.087255557245642032 0.058160136707150867 -0.021686897939617294 0.89161062206051556 0.016507899243114049 -0.12573523509227374 0.2492524842102975 -0.069720080239187313 0.22461346230068929 0.15323580129512152 -0.040575255446452352
leaf_weight=4850.0373561531305 55.756983883678913 2084.7697864379734 280.82806980609894 496.02521301805973 335.3986319731921 318.7314924467355 1568.8569748438895 2030.2924652062356 185.64023915305734 754.59548506699502 428.12003204226494 183.99268890917301 1539.3395218998194 284.36639919131994 49.006950385868549 55.563723046332598 44.853838086128235 3.9131417572498313 1328.6113589406013 37.964680647477508 425.86202489957213 582.14505185931921 3.3201120086014289 1371.3933505676687 5.8946496509015551 6.8311031758785248 40.850147645920515 37.228520922362804 36.80917190387845 64.842603098601103
leaf_count=13212 689 19905 262 1122 2019 7049 4048 9212 2715 13318 1999 183 1443 504 154 928 830 44 2176 684 1482 6132 36 12956 45 70 430 241 218 875
internal_value=0.0348597 0.0254449 0.0672449 0.0363627 0.0105871 -0.00102741 0.0449286 0.0298532 -0.0225028 -0.0100839 0.0075476 0.0552477 0.0904232 0.0634891 0.0290674 0.0310006 0.0506923 0.0748534 0.0609086 -0.0496085 0.024498 0.0187285 0.0120367 0.0251044 0.244409 0.459346 0.0227368 0.0970898 0.0359571 0.05358
internal_weight=19491.8 15101.6 4390.27 8704.97 6396.61 3486.03 2236.73 6880.33 1401.26 1082.53 483.877 1752.85 2153.54 614.201 333.373 327.936 272.372 227.518 1824.64 41.8778 2910.58 2484.71 2084.47 1502.33 16.0459 10.1512 1486.28 114.888 77.6593 400.241
internal_count=104981 95699 9282 25722 69977 45473 6919 22424 25568 18519 2688 4231 2363 920 658 5201 4273 3443 3298 728 24504 23022 20128 13996 151 106 13845 889 648 2894
is_linear=0
shrinkage=0.1


Tree=16
num_leaves=31
num_cat=0
split_feature=25 16 15 30 14 14 18 12 22 29 17 29 26 23 21 24 21 21 23 24 20 12 6 25 25 23 19 24 27 26
split_gain=518.456 244.393 185.11 108.94 92.0251 83.8744 79.0832 73.7707 100.889 64.2138 64.1707 66.381 59.7365 57.2068 58.3112 56.2078 55.1851 53.7125 53.1888 63.9036 52.9197 50.366 50.2174 99.6952 72.7063 88.6536 61.3518 69.6472 54.5095 53.6272
threshold=88.500000000000014 0.065522578453682409 0.44328973814309264 1.0000000180025095e-35 0.060064711088507534 0.09707499856925618 0.007719274609017366 0.47981063240014865 800.50000000000011 32.500000000000007 -298.675349148355 38.500000000000007 0.85925000000000007 109.50000000000001 169.50000000000003 15.765000000000002 13.500000000000002 191.50000000000003 2.5000000000000004 5.8250000000000011 28.500000000000004 0.11167735113973006 1.0000000180025095e-35 9.5000000000000018 71.500000000000014 10.500000000000002 570.24500000000012 6.4250000000000007 2279.3300000000004 0.85705000000000009
decision_type=2 2 2 2 2 2 2 2 2 2 2 2 2 2 2 2 2 2 2 2 2 2 2 2 2 2 2 2 2 2
left_child=2 5 3 15 22 16 -4 8 -3 20 11 -8 -12 -14 -15 21 -2 -16 -7 -20 -10 -1 24 -24 25 29 27 -26 -25 -5
right_child=1 7 6 4 -6 18 10 -9 9 -11 12 -13 13 14 17 -17 -18 -19 19 -21 -22 -23 23 28 26 -27 -28 -29 -30 -31
leaf_value=-0.18234175318903337 0.034358778962427096 0.087450042241002834 -0.011198570628237054 0.030893410981687894 0.041414036662250901 0.096949841843836343 0.032327119198265003 0.092761976946177299 0.052130481540430408 -0.10534012141599498 0.0050815183804900719 0.13525559789004477 -0.0085200904303328606 0.059060029097294103 0.60714959360139376 0.072777978206545066 -0.012654848792611282 0.15861314942900717 -0.16298831748080211 0.050693401177295185 -0.063212335098993211 0.033042032875861875 0.0041513941721729236 -0.045238682267509239 -0.10951199759679456 -0.012904200337177825 0.04891511173379285 0.015268714067534942 0.061537022392421085 0.16050817235704787
leaf_weight=11.183134406805037 1682.7619091384113 378.63800077140331 1546.023900616914 272.32166026905179 2611.9699008613825 326.33930634707212 671.22258819639683 1741.2108582407236 193.65571294724941 42.074294865131378 3278.9442298728973 69.10862997546792 138.08593578264117 279.61084959656 3.4434904046356669 862.21977435797453 293.17329632490873 11.882742073386906 14.47215775772929 424.98899382352829 50.0598404109478 372.32326642423868 694.92475716769695 50.840850248932838 50.654197361320257 1462.8342325910926 673.77722812816501 382.53219117224216 802.24419330060482 36.159517206251621
leaf_count=53 4728 418 26911 1161 6707 365 4092 1781 343 147 33923 336 931 2087 14 1275 2660 110 72 895 153 767 2160 175 199 8162 1450 987 1832 87
internal_value=0.0314724 0.0586824 0.0216658 0.0313533 0.0265288 0.0382719 0.00828691 0.0819445 0.0535961 0.00874368 0.0150531 0.0419353 0.00969157 0.0445999 0.0694701 0.0586114 0.0273833 0.25939 0.066367 0.0436565 0.0284388 0.0267614 0.0177449 0.032269 0.00993356 -0.00263074 0.0300384 0.000677612 0.0551736 0.0460866
internal_weight=19429.7 5147.37 14282.3 8283.98 7038.26 2741.74 5998.32 2405.64 664.428 285.79 4452.3 740.331 3711.97 433.023 294.937 1245.73 1975.94 15.3262 765.8 439.461 243.716 383.506 4426.29 1548.01 2878.28 1771.32 1106.96 433.186 853.085 308.481
internal_count=104981 11562 93419 25015 22920 8720 68404 2842 1061 643 41493 4428 37065 3142 2211 2095 7388 124 1332 967 496 820 16213 4167 12046 9410 2636 1186 2007 1248
is_linear=0
shrinkage=0.1


Tree=17
num_leaves=31
num_cat=0
split_feature=25 16 30 15 17 12 22 14 23 24 29 28 20 25 25 25 13 24 28 24 25 14 22 24 24 28 20 18 25 24
split_gain=456.468 208.807 166.422 133.575 90.5343 80.6846 92.9264 78.9885 71.7057 64.5082 91.7362 76.5167 70.6468 66.3774 154.364 74.5112 84.2113 77.4356 68.5562 61.4395 62.0496 113.601 59.7386 59.1153 53.5007 56.1369 53.4163 64.0117 53.3113 52.9827
threshold=90.500000000000014 0.064595324048992458 1.0000000180025095e-35 0.44328973814309264 4.1908963207937431 0.47981063240014865 1788.5000000000002 0.060064711088507534 9.5000000000000018 48.335000000000008 21.500000000000004 1.6799936005440219 3.5000000000000004 25.500000000000004 48.500000000000007 9.5000000000000018 0.00021432449681370918 25.685000000000006 0.45412977959568984 35.525000000000013 55.500000000000007 0.054273834585033758 5272.5000000000009 8.9150000000000009 24.805000000000003 0.4388117980903109 21.500000000000004 0.0017825818449311718 94.500000000000014 34.715000000000011
decision_type=2 2 2 2 2 2 2 2 2 2 2 2 2 2 2 2 2 2 2 2 2 2 2 2 2 2 2 2 2 2
left_child=2 4 8 7 -2 6 -3 -4 23 10 13 -12 -13 15 -15 29 17 -17 22 -16 21 -21 -18 -1 25 -10 -9 -28 -6 -5
right_child=1 5 3 9 28 -7 -8 26 24 -11 11 12 -14 14 19 16 18 -19 -20 20 -22 -23 -24 -25 -26 -27 27 -29 -30 -31
leaf_value=0.0071253160578516042 0.042250608864697753 0.073220902326799536 0.016405606298738603 -0.028755233162643931 -0.079320460852823779 0.092196404967199802 -0.0073938248551708545 0.048992338433903604 -0.0094373192856714513 0.021428060617239342 -0.035209107866461337 0.47509815276428197 -0.10979358644728532 -0.06979365811655272 0.014114601979063515 0.13253130659876919 0.042637240370191926 -0.0032364408855574756 -0.082026193169575934 -0.1041238574454072 -0.064176942454497746 0.41215813220519149 -0.10921540325505788 0.072787896354702647 0.048209484073146187 0.049975268512998279 -0.11972737283825341 0.024647849371707761 0.014992668944389579 0.075707504081431565
leaf_weight=160.82431359402835 1716.8370997011662 531.56568403542042 4573.7287795767188 310.26667302101851 98.616626594215631 1483.8519197851419 195.61110417172313 1677.2271879166365 488.21909604221582 1467.0855097621679 844.40102887898684 5.612247020006178 3.2673759218305349 319.11279152333736 1352.7747305184603 155.15648239850998 445.69897063449025 57.606889314949512 57.276175033301115 9.1935431230813283 174.67263783887029 7.9451501853764048 27.505355648696423 929.7709809653461 735.38383977115154 235.86681180633605 31.649918168783188 1033.6579032950103 152.79578687250614 57.559842210263014
leaf_count=590 4485 773 16537 4439 811 1561 670 3820 2031 12765 12779 29 56 10279 14357 1377 4022 495 684 257 1760 114 390 2082 2262 871 174 2892 982 637
internal_value=0.0284732 0.0577342 0.0204074 0.0156962 0.0340434 0.0788236 0.0515355 0.0244516 0.0437065 0.00359894 -0.003234 -0.0321383 0.259879 0.00505688 -0.00647676 0.0244033 0.0426211 0.0957714 0.0213037 0.00660456 -0.046361 0.135214 0.0338107 0.063105 0.029211 0.00991599 0.0378698 0.0203585 -0.0220017 -0.0124082
internal_weight=19340.7 4179.28 15161.5 12611.4 1968.25 2211.03 727.177 7316.26 2550.07 5295.14 3828.05 853.281 8.87962 2974.77 1863.7 1111.07 743.244 212.763 530.481 1544.59 191.811 17.1387 473.204 1090.6 1459.47 724.086 2742.54 1065.31 251.412 367.827
internal_count=104981 9282 95699 87863 6278 3004 1443 23423 7836 64440 51675 12864 85 38811 26767 12044 6968 1872 5096 16488 2131 371 4412 2672 5164 2902 6886 3066 1793 5076
is_linear=0
shrinkage=0.1


Tree=18
num_leaves=31
num_cat=0
split_feature=25 16 15 12 14 14 7 25 8 22 25 25 25 12 25 23 20 22 25 24 28 27 27 26 13 23 22 14 12 22
split_gain=394.11 193.997 141.869 117.865 79.0084 77.9481 83.4299 180.045 75.0184 74.2741 72.2945 116.678 93.5414 71.9465 75.52 70.5943 80.3236 70.076 67.4148 73.2655 69.7784 94.4662 63.0348 66.9468 60.9468 58.8046 55.9414 55.513 55.201 73.6933
threshold=90.500000000000014 0.065522578453682409 0.13780588868461915 0.11167735113973006 0.1019720118027778 0.036022345104268612 1.0000000180025095e-35 26.500000000000004 1.0000000180025095e-35 5868.5000000000009 27.500000000000004 42.500000000000007 10.500000000000002 0.0080871776797706279 39.500000000000007 6.5000000000000009 4.5000000000000009 51.500000000000007 48.500000000000007 10.725000000000003 0.47135492771047199 18514.900000000005 795859.31500000006 0.67765000000000009 0.00059534582448252549 25.500000000000004 3941.5000000000005 0.1576595685286922 0.47981063240014865 142.50000000000003
decision_type=2 2 2 2 2 2 2 2 2 2 2 2 2 2 2 2 2 2 2 2 2 2 2 2 2 2 2 2 2 2
left_child=2 15 4 13 17 9 8 -8 -7 10 12 -12 22 14 -4 27 -17 -1 -10 -20 -21 -22 24 -24 -5 -6 -13 -2 29 -3
right_child=1 28 3 5 25 6 7 -9 18 -11 11 26 -14 -15 -16 16 -18 -19 19 20 21 -23 23 -25 -26 -27 -28 -29 -30 -31
leaf_value=0.063679118006144092 0.044346096459453102 0.098400508697583544 -0.11838612284924153 -0.056886853704438828 0.095505741912906283 0.027661741639461293 0.023412444632732263 -0.066414682438137279 -0.048067133318709016 -0.095143891410342116 -0.084259339001858238 0.0052059631832993003 0.039644771300443749 -0.078507307056526102 0.10965106145372981 -0.024662286120315565 0.032590851191304164 0.022026758671504457 -0.051388023895355378 0.029762956993470809 0.65498574087594963 0.028683988797325224 0.36727810023921531 0.031022704994503027 0.015672389409497865 0.038901864247582879 -0.058424068219087036 0.11199011498728668 0.08833685292638907 0.023617567695232967
leaf_weight=463.86167678236961 658.78771391138434 207.79953417181969 21.024706771597266 251.43976747244596 320.56781695783138 5652.0193918161094 647.78984021022916 340.37861043214798 251.96960611082613 78.74180743098259 190.87177908420563 1355.7859958764166 886.52730985172093 220.95696808956563 46.961407780647278 316.27800139784813 1087.9965394567698 3125.4665980711579 125.21727418899536 377.48026190325618 4.2480362690985185 5.5608403794467449 8.3725569173693675 20.220769885927439 214.53126291930676 429.35303477942944 153.84699549153447 148.70642097294331 1302.7274568676949 360.16007230430841
leaf_count=648 1359 204 263 2274 365 29654 3798 7581 4467 1324 4926 11936 5536 2868 336 1329 4097 7939 1886 4487 31 64 31 149 1726 816 2594 134 1443 716
internal_value=0.0257066 0.0532913 0.0182945 0.0121847 0.0335774 0.013908 0.0195195 -0.00752887 0.0236851 0.000760173 0.00321074 -0.0105927 0.0202066 -0.050828 0.0391306 0.0332435 0.019696 0.0274096 -0.0057154 0.0151065 0.0366053 0.299923 -0.0146372 0.129483 -0.0234809 0.0630983 -0.00127859 0.0568033 0.0769945 0.0509784
internal_weight=19275.7 4082.46 15193.2 10853.9 4339.25 10565 7404.66 988.168 6416.5 3160.34 3081.6 1700.5 1381.09 288.943 67.9861 2211.77 1404.27 3589.33 764.476 512.506 387.289 9.80888 494.564 28.5933 465.971 749.921 1509.63 807.494 1870.69 567.96
internal_count=104981 9282 95699 85931 9768 82464 51968 11379 40589 30496 29172 19456 9716 3467 599 6919 5426 8587 10935 6468 4582 95 4180 180 4000 1181 14530 1493 2363 920
is_linear=0
shrinkage=0.1


Tree=19
num_leaves=31
num_cat=0
split_feature=25 15 15 12 22 14 12 23 22 27 25 13 12 20 22 27 26 10 16 22 28 22 17 16 19 26 19 27 27 26
split_gain=339.503 153.939 139.506 115.375 93.1514 88.3037 74.3979 90.8346 73.7754 73.0291 71.4486 85.7163 67.3567 63.9529 144.283 82.4357 75.0588 81.5002 68.0391 67.5586 70.4746 63.922 58.203 67.1471 66.298 56.649 77.3952 88.214 76.2484 65.3724
threshold=92.500000000000014 0.13780588868461915 0.44328973814309264 0.47981063240014865 1912.5000000000002 0.1481424802766704 0.47981063240014865 714.50000000000011 51.500000000000007 55.270000000000003 24.500000000000004 0.00092397671959687955 0.0080871776797706279 21.500000000000004 3559.5000000000005 32508.625000000004 0.8640500000000001 1.0000000180025095e-35 0.064595324048992458 4630.5000000000009 1.9925477201339272 1788.5000000000002 -168.6538550858773 0.021162327277231923 224.47500000000005 0.78345000000000009 5647.9400000000014 43433.562500000007 321019.24500000005 0.77605000000000013
decision_type=2 2 2 2 2 2 2 2 2 2 2 2 2 2 2 2 2 2 2 2 2 2 2 2 2 2 2 2 2 2
left_child=1 5 6 4 10 8 7 21 -1 -5 11 22 -12 15 16 18 17 -15 -11 20 -17 -2 24 -24 -3 28 27 -27 -21 -30
right_child=2 3 -4 9 -6 -7 -8 -9 -10 13 12 -13 -14 14 -16 19 -18 -19 -20 25 -22 -23 23 -25 -26 26 -28 -29 29 -31
leaf_value=0.061554644508280937 0.070942886169246142 0.0076304137705257569 0.030633675131396185 0.09461280924652743 -0.035656559075548482 0.077767267966533937 0.089543715098831078 -0.1703552476060112 0.023299494151548458 -0.0058295687876160004 0.10761841339162348 -0.051834420270017834 -0.01846683099351102 -0.0011752811550970927 -0.045297031967648005 0.025036019250966036 0.061098897315224082 0.042911526881184874 0.031285358097223159 0.081494804667356757 0.21699274489448728 -0.0058352153404827439 -0.11475718812632996 0.062028860489662822 0.16903827702933383 0.17929011009475149 0.14295192029244413 -0.084675356685505493 0.17917936178713309 0.54359796976254049
leaf_weight=583.71117481589317 452.56065703928471 35.701525177806616 1418.6390066891909 115.56733149662614 863.56263979710639 397.8688268661499 1046.8390231877565 18.861424777656794 3697.0232029855251 1546.9951190277934 45.492086773738265 69.658605575561523 617.2423390597105 2212.8686691951007 508.69770172797143 3327.116842513904 285.12722585909069 517.3483263514936 725.59344102069736 162.96136511303484 19.236666958779097 142.60594785585999 26.464629963040352 114.17771345004439 88.604973904788494 15.685365049168466 35.643982386216521 65.644946224987507 23.363216158002619 6.2366275172680607
leaf_count=815 666 209 4511 466 11910 521 1176 123 8932 13532 258 458 5258 19408 6510 20517 1452 1542 2240 1595 54 482 271 582 317 105 156 765 131 19
internal_value=0.0232411 0.0174249 0.0536634 0.0111701 -0.0116125 0.0327042 0.0733343 0.0456993 0.0285159 0.0156011 0.00920639 0.0468748 -0.00981196 0.014635 0.00396645 0.0209767 0.0122773 0.00717872 0.00602051 0.0302739 0.0261395 0.0525463 0.0728267 0.0287631 0.122681 0.0749705 0.0200822 -0.033767 0.108313 0.255962
internal_weight=19187.1 16107.6 3079.51 11429 1860.9 4678.6 1660.87 614.028 4280.73 9568.09 997.342 334.607 662.734 9452.52 3524.04 5928.48 3015.34 2730.22 2272.59 3655.89 3346.35 595.167 264.949 140.642 124.306 309.536 116.974 81.3303 192.561 29.5998
internal_count=104981 98023 6958 87755 19263 10268 2447 1271 9747 68492 7353 1837 5516 68026 28912 39114 22402 20950 15772 23342 20571 1148 1379 853 526 2771 1026 870 1745 150
is_linear=0
shrinkage=0.1


Tree=20
num_leaves=31
num_cat=0
split_feature=25 16 24 15 12 24 30 14 21 19 22 27 29 25 13 22 25 23 28 27 24 27 19 23 28 18 17 12 25 25
split_gain=297.764 231.884 96.4746 83.3527 79.824 78.3051 80.3976 74.3548 65.717 60.3424 59.6894 58.3115 54.3099 75.2041 53.1973 51.567 51.0799 55.4284 47.3665 47.0669 47.4066 59.1853 55.2904 50.2864 45.8452 48.7 44.5251 44.1161 47.8262 138.524
threshold=84.500000000000014 0.065522578453682409 223.45000000000002 0.44328973814309264 0.47981063240014865 18.005000000000006 1.0000000180025095e-35 0.1019720118027778 4.5000000000000009 4.2250000000000005 6779.5000000000009 55.270000000000003 4.5000000000000009 89.500000000000014 0.00010954363170478469 5868.5000000000009 98.500000000000014 348.50000000000006 0.37852622061482821 571584.15000000002 3.5650000000000004 246.38000000000002 214.11500000000004 987.50000000000011 0.041460168539707305 0.0039617431990737464 -292.67945124164083 0.11167735113973006 24.500000000000004 41.500000000000007
decision_type=2 2 2 2 2 2 2 2 2 2 2 2 2 2 2 2 2 2 2 2 2 2 2 2 2 2 2 2 2 2
left_child=2 4 3 10 5 9 14 -3 -4 -2 19 -6 -8 -14 -7 27 17 -13 -15 20 22 23 -1 -22 25 -23 -27 -5 -29 -30
right_child=1 7 8 15 11 6 12 -9 -10 -11 -12 16 13 18 -16 -17 -18 -19 -20 -21 21 24 -24 -25 -26 26 -28 28 29 -31
leaf_value=0.030806639373181434 0.21044396290211262 0.050471148648788711 0.081658540075368033 -0.050700278099146651 0.10279140692963895 -0.033262781353407232 0.041359170293230746 0.087207345774446249 0.018784071218233781 -0.048376190526504916 -0.13906925740210863 0.029790496151282281 -0.11372376399488289 -0.0081935543931588341 0.10264361397708417 -0.068799171593207212 0.07419840252215891 -0.022608159932112223 0.19850662068941419 0.04524719158650517 0.063857354021889218 -0.072246779037926381 -0.078872842904342932 0.33810371773402276 0.022358461033914343 0.036320169728637511 0.0010226480486928591 0.016274549766634162 -0.058932271158161076 0.0042799704177096986
leaf_weight=77.896015387028456 9.2718368694186193 1900.9926037415862 323.17874285764992 154.75536525435746 112.30752411484718 35.917464852333069 213.34423159435391 775.81268516927958 342.32215978391469 316.51650493964553 24.364696439355612 1915.1496221646667 71.869828164577484 339.4607046097517 145.36574207246304 105.53687318600714 226.56465654075146 225.66761604696512 11.460665147751568 571.05865332111716 161.96559366211295 79.433349795639515 112.11445609107614 6.9739200063049784 3640.5585870854557 434.94858233630657 2003.5791470780969 1824.6331175081432 401.30625149607658 2546.6151008978486
leaf_count=282 43 2914 782 2542 132 121 1061 912 1654 2690 167 4265 779 2053 225 2328 272 699 22 1498 435 464 552 18 11714 1085 6716 17623 11376 29557
internal_value=0.0209978 0.0387983 0.0122448 0.0102135 0.022307 0.000445721 0.0169683 0.0611183 0.049317 -0.0410102 0.0171819 0.0323856 0.000226463 -0.0205295 0.0757166 0.00036513 0.0290456 0.0242671 -0.00144298 0.0177189 0.0153069 0.0167848 -0.033909 0.0751784 0.015183 0.00480848 0.0073185 0.00184654 0.00355043 -0.00432523
internal_weight=19110.9 6299.7 12811.2 12145.7 3622.9 1143.21 817.419 2676.81 665.501 325.788 7112.89 2479.69 636.135 422.791 181.283 5032.85 2367.38 2140.82 350.921 7088.53 6517.47 6327.46 190.01 168.94 6158.52 2517.96 2438.53 4927.31 4772.55 2947.92
internal_count=104981 16188 88793 86357 12362 6994 4261 3826 2436 2733 22931 5368 3915 2854 346 63426 5236 4964 2075 22764 21266 20432 834 453 19979 8265 7801 61098 58556 40933
is_linear=0
shrinkage=0.1


Tree=21
num_leaves=31
num_cat=0
split_feature=25 16 14 14 12 14 23 18 13 27 18 18 21 21 22 20 12 22 7 25 14 14 15 22 22 22 30 15 12 22
split_gain=260.03 158.484 104.463 78.1743 71.5768 68.6622 67.7441 67.3732 66.4712 58.6323 55.4817 52.4946 52.4737 60.2124 93.2141 53.1744 67.4043 51.713 50.8491 83.0419 75.1191 54.6925 55.6185 53.1167 50.3414 50.2779 53.8725 52.5895 49.7982 53.0154
threshold=90.500000000000014 0.064595324048992458 0.052679842165218434 0.058156613220341789 0.11167735113973006 0.28536610881402563 6.5000000000000009 0.007719274609017366 9.0492565321343882e-05 55.270000000000003 0.24219764610389613 0.0038156732334769035 20.500000000000004 18.500000000000004 505.50000000000006 9.5000000000000018 0.47981063240014865 2435.5000000000005 1.0000000180025095e-35 25.500000000000004 0.010473382063887557 0.012595996940086151 0.44328973814309264 4997.5000000000009 3318.5000000000005 12.500000000000002 1.0000000180025095e-35 0.44328973814309264 0.47981063240014865 114.50000000000001
decision_type=2 2 2 2 2 2 2 2 2 2 2 2 2 2 2 2 2 2 2 2 2 2 2 2 2 2 2 2 2 2
left_child=2 6 4 28 8 9 -2 -6 -1 -4 12 -8 13 24 -15 16 -14 -17 21 20 -20 -9 -23 -24 25 26 -11 -27 29 -3
right_child=1 3 5 -5 7 -7 11 18 -10 10 -12 -13 15 14 -16 17 -18 -19 19 -21 -22 22 23 -25 -26 27 -28 -29 -30 -31
leaf_value=-0.10019464339695246 0.045898839337821212 0.084243973021186094 0.10375403648439725 0.081431174198156459 -0.0061619187751896136 0.10191843146291342 -0.069771739441332664 -0.023514662382579099 -0.0016818149484580901 0.076954489808721535 0.043575027465308516 0.013121902302137181 -0.063604995517137372 0.44999557950139357 0.070674692339177739 0.013917483463928508 0.037579235158403196 -0.040916938550962283 0.15973522709695387 -0.058727431316490143 0.0022481323729663435 0.029378619880352366 0.0093931520814222753 -0.10874108447038924 0.051042413418773594 0.023821018450403283 -0.13828940030356693 4.0153981124271873e-05 0.062591058004962952 -0.0054225301218334826
leaf_weight=120.38507904484868 742.48687196150422 84.245824456214905 84.604136161506176 1033.781869892031 2532.3987320950255 106.60063669644296 82.055202633142471 310.55827605910599 158.89951119199395 194.06365046277642 866.75011911988258 1107.7444736473262 77.304591981694102 6.9130892455577841 103.03086129203439 283.37933920323849 443.75835253670812 437.52534700743854 32.817446120083332 244.5811226349324 392.84488973021507 2613.7829121351242 1900.488927796483 38.838755330070853 457.07709263265133 2116.9433427900076 12.369156811386345 1658.4091797526926 465.16770946979523 303.44110048934817
leaf_count=1511 1421 96 260 1376 25190 182 869 2060 1528 347 2145 3988 751 7 604 2003 2688 4381 82 5025 1941 6721 17066 747 2424 4875 57 13104 639 893
internal_value=0.0189991 0.0423258 0.0131362 0.0629423 0.00562487 0.0222892 0.0221964 0.0073481 -0.0441456 0.0210302 0.0199789 0.0074051 0.0164471 0.0214212 0.0945257 -0.00177068 0.0225676 -0.0193622 0.0135305 -0.0122916 0.01439 0.0170889 0.0198584 0.00702729 0.0196105 0.0160023 0.0640574 0.0133747 0.0405311 0.0140623
internal_weight=19013.2 3818.92 15194.3 1886.64 8345.6 6848.73 1932.29 8066.31 279.285 6742.13 6657.52 1189.8 5790.77 4548.81 109.944 1241.97 521.063 720.905 5533.91 670.243 425.662 4863.67 4553.11 1939.33 4438.86 3981.79 206.433 3775.35 852.855 387.687
internal_count=104981 9282 95699 3004 61871 33828 6278 58832 3039 33646 33386 4857 31241 21418 611 9823 3439 6384 33642 7048 2023 26594 24534 17813 20807 18383 404 17979 1628 989
is_linear=0
shrinkage=0.1


Tree=22
num_leaves=31
num_cat=0
split_feature=25 15 30 14 23 12 23 27 25 25 25 12 24 13 14 18 13 22 24 13 21 28 25 6 29 23 22 21 24 24
split_gain=227.697 112.24 104.603 79.5586 70.8267 70.5095 74.7911 64.0043 61.2254 119.399 103.155 93.1145 53.5222 53.2294 70.0087 60.8262 54.2341 53.181 51.8557 51.6475 60.2578 52.0116 51.6505 51.2125 49.3007 50.8195 121.513 48.6611 48.3671 47.1335
threshold=92.500000000000014 0.44328973814309264 1.0000000180025095e-35 0.052679842165218434 9.5000000000000018 0.47981063240014865 714.50000000000011 55.270000000000003 25.500000000000004 43.500000000000007 9.5000000000000018 0.47981063240014865 7.5150000000000006 0.00041436069383983775 0.010473382063887557 0.018499382103333979 2.3813832979301021e-05 2100.5000000000005 3.5650000000000004 0.0008049075547003745 29.500000000000004 0.95197916578798003 15.500000000000002 1.0000000180025095e-35 1.0000000180025095e-35 830.50000000000011 4630.5000000000009 437.50000000000006 3.9950000000000006 4.285000000000001
decision_type=2 2 2 2 2 2 2 2 2 2 2 2 2 2 2 2 2 2 2 2 2 2 2 2 2 2 2 2 2 2
left_child=2 5 4 8 12 6 17 28 10 -10 27 24 -1 16 15 -15 -12 -2 -3 21 -21 22 -16 -22 25 -11 -27 -4 -5 -13
right_child=1 18 3 7 -6 -7 -8 -9 9 11 13 29 -14 14 19 -17 -18 -19 -20 20 23 -23 -24 -25 -26 26 -28 -29 -30 -31
leaf_value=-0.011673165248460847 0.057938032391111408 -0.06987739629506011 -0.016221789335153943 -0.15864811973203122 0.015875263515049847 0.079775021826066786 -0.16626141331645422 0.016143676703637255 -0.051886563825828159 0.019047761648737449 -0.029496161260152993 -0.04242354716372343 0.054968552153520506 0.016616639587687162 0.0033282557525150997 0.16927534000274497 0.050049999568676395 -0.016157529385631229 0.026769077079289508 -0.005422002796225356 -0.013828313783070402 0.1809852707142878 -0.094565062378629203 0.090667088384661532 -0.038175831400636746 0.026519771630089929 0.85412314573991965 0.13601550889347008 0.11376324426799576 0.011116582077990045
leaf_weight=135.09689430706203 435.63010460138321 57.924133270978928 1001.8237570673227 6.9886911902576676 1567.801970873028 901.71080669760704 17.886595334857702 5727.4055755827576 495.45643108244985 56.503525048494339 94.758396539837122 174.2996582146734 1116.5472985412925 56.372271154075861 98.021782699972391 48.604276537895203 897.64305438101292 124.5639558210969 1335.8107378426939 470.59540776535869 68.127436306327581 10.159268494695423 119.73269035667181 150.53128831088543 714.87703547812998 5.6920190732926113 2.5774440038949251 21.445625821128488 96.728790901601315 2902.6461599152535
leaf_count=482 716 336 7448 61 5425 1176 123 30680 11624 530 614 1411 2490 336 510 105 4383 432 4175 2471 472 40 822 742 7774 61 26 116 215 19185
internal_value=0.0171939 0.043117 0.0125499 0.00882073 0.0300368 0.0622973 0.035035 0.0175535 0.00192994 -0.00567475 0.0128246 0.000262081 0.0477755 0.0259578 0.00994105 0.0872978 0.0424546 0.0414622 0.0227524 0.00108701 0.0147327 -0.0401802 -0.0504986 0.0581095 -0.0306065 0.0529337 0.284469 -0.0130312 0.0954076 0.0080837
internal_weight=18914 2873.53 16040.4 13221 2819.45 1479.79 578.081 5831.12 7389.87 4352.05 3037.82 3856.6 1251.64 2014.55 1022.14 104.977 992.401 560.194 1393.73 917.168 689.254 227.914 217.754 218.659 779.65 64.773 8.26946 1023.27 103.717 3076.95
internal_count=104981 6958 98023 89626 8397 2447 1271 30956 58670 40611 18059 28987 2972 10495 5498 441 4997 1148 4511 5057 3685 1372 1332 1214 8391 617 87 7564 276 20596
is_linear=0
shrinkage=0.1


Tree=23
num_leaves=31
num_cat=0
split_feature=14 30 15 25 12 25 23 22 25 24 25 27 17 21 12 18 24 22 21 29 20 22 17 25 25 22 18 26 22 25
split_gain=199.376 157.25 108.837 86.9108 98.3915 90.0035 70.897 71.4139 70.1211 67.0275 62.6883 61.9171 57.3267 54.6558 53.5734 51.6604 61.516 51.2828 51.0723 53.493 47.9845 46.4383 46.3919 44.1058 52.5257 43.2383 50.5739 43.2795 59.6916 53.3444
threshold=0.23165099115747331 1.0000000180025095e-35 0.44328973814309264 71.500000000000014 0.47981063240014865 25.500000000000004 9.5000000000000018 3585.5000000000005 93.500000000000014 2.3650000000000007 43.500000000000007 82.645000000000024 -294.08599679267871 1.0000000180025095e-35 0.47981063240014865 0.0156011880695425 30.625000000000004 67.500000000000014 159.50000000000003 1.0000000180025095e-35 4.5000000000000009 83.500000000000014 -296.63974494252733 10.500000000000002 16.500000000000004 67.500000000000014 0.2226181667049342 0.82455000000000012 489.50000000000006 37.500000000000007
decision_type=2 2 2 2 2 2 2 2 2 2 2 2 2 2 2 2 2 2 2 2 2 2 2 2 2 2 2 2 2 2
left_child=1 6 3 5 13 23 7 17 21 -8 -7 -12 -13 -5 18 -14 -17 -1 19 -4 -11 -6 -2 -3 -25 -16 -27 29 -29 -28
right_child=22 2 14 4 8 10 9 -9 -10 20 11 12 15 -15 25 16 -18 -19 -20 -21 -22 -23 -24 24 -26 26 27 28 -30 -31
leaf_value=0.053878683165995159 0.1051518696472479 0.0051823609632742126 0.049928527457925725 0.051361703259983252 -0.15837307046453564 -0.038373825157391572 -0.17058855231283057 0.13401675995916149 0.080256535682016142 -0.0051869224693118507 0.1650717842329246 0.043537222153044196 -0.026131788245013284 -0.013284786056961071 -0.098451741458476794 0.05035034423364753 -0.011483173207562912 0.016443506570563187 -0.10655270747185804 -0.020451403793522296 0.030277222841513508 0.03385729809627424 0.042699978061618404 0.049952710111656112 0.014819731729498712 0.0022330083672169642 -0.080902150869734082 -0.084625366152356662 0.051012929115274455 0.090000300425547394
leaf_weight=1152.9094630107284 280.48750135488808 1170.079965852201 118.8649980109185 163.67272122204304 12.646973654627798 486.19858686253428 18.462082087993622 88.769006783142686 365.85160510241985 519.68140426836908 23.065989181399345 257.29855655878782 736.56811218336225 650.79078735783696 40.767830237746239 259.80023597925901 422.62615364789963 536.1058700196445 62.509505349211395 1180.81712675374 1435.1095567587763 1988.1087666302919 206.52917278371751 761.98903055489063 963.76836188137531 4617.271504605189 20.359350938349962 52.384328870102763 85.239580471068621 177.44662756472826
leaf_count=2126 333 3233 1177 294 42 4437 105 139 479 1660 54 790 3805 2346 230 774 1546 1524 1511 14660 4375 3560 631 1584 2413 49992 170 250 233 508
internal_value=0.0155165 0.0138422 0.00915537 0.0167231 0.0296856 0.00860834 0.0321072 0.0465913 0.0400028 0.019058 -0.00671114 0.00234777 0.000108671 -0.000293576 -0.000682858 -0.00776599 0.0120569 0.0419965 -0.0182611 -0.0140147 0.0208491 0.0326422 0.0786679 0.0201703 0.0303323 0.0041124 0.00495665 0.0424483 -0.000615608 0.07241
internal_weight=18856.2 18369.2 14618.1 8262.47 3181.07 5081.39 3751.04 1777.78 2366.61 1973.25 2185.56 1699.36 1676.29 814.464 6355.66 1418.99 682.426 1689.02 1362.19 1299.68 1954.79 2000.76 487.017 2895.84 1725.76 4993.47 4952.7 335.43 137.624 197.806
internal_count=104981 104017 94088 25357 6721 18636 9929 3789 4081 6140 11406 6969 6915 2640 68731 6125 2320 3650 17348 15837 6035 3602 964 7230 3997 51383 51153 1161 483 678
is_linear=0
shrinkage=0.1


Tree=24
num_leaves=31
num_cat=0
split_feature=25 15 25 12 14 17 29 27 24 28 12 28 14 25 21 14 26 26 22 24 28 23 28 14 28 18 29 29 18 19
split_gain=186.404 132.168 99.2995 77.9916 66.7621 70.7691 59.395 57.9609 60.1608 92.696 57.4184 56.984 56.2995 54.0189 52.9201 53.4251 49.7043 48.643 68.6627 47.9265 56.6203 52.1948 47.5053 47.2214 45.0795 62.7798 56.8254 55.8957 71.4428 63.1153
threshold=98.500000000000014 0.13780588868461915 84.500000000000014 0.11167735113973006 0.020580548581829377 80.730481596608087 28.500000000000004 55.270000000000003 6.8750000000000009 0.3571391369047619 0.0080871776797706279 1.1666740744238859 0.1019720118027778 39.500000000000007 -1.0000000180025095e-35 0.28536610881402563 0.69285000000000008 0.86695000000000011 3530.5000000000005 18.665000000000003 0.23248402861322337 813.50000000000011 0.2714119893312516 0.021557619723478309 0.15000458463231248 0.018224575568213244 46.500000000000007 38.500000000000007 0.037993390036139198 527.84000000000015
decision_type=2 2 2 2 2 2 2 2 2 2 2 2 2 2 2 2 2 2 2 2 2 2 2 2 2 2 2 2 2 2
left_child=1 2 19 10 24 7 -2 -6 9 22 13 14 -4 -3 -10 -16 -11 -7 -19 -1 21 -21 -9 -18 25 -5 -26 28 29 -27
right_child=6 3 12 4 5 17 -8 8 11 16 -12 -13 -14 -15 15 -17 23 18 -20 20 -22 -23 -24 -25 26 27 -28 -29 -30 -31
leaf_value=-0.00038048464681942083 0.068610896863385437 -0.11699165194450965 0.033433758105484622 -0.06909096960016739 0.076888888359054774 -0.0084916905003749096 -0.0021215055533177962 -0.032911159529467465 0.090282063160484552 -0.047509684660848692 -0.069750224922468129 0.12692948304689894 0.073148452308892373 0.078469750817842646 0.014033913878543426 0.10432512270392702 0.31295035300094037 0.060240181191329727 -0.075018667888081508 0.022809768693443481 0.07595113264400026 -0.054113283087262903 -0.12923137205538998 0.024249592910682856 0.011826281057342215 0.098367901296911489 -0.12895786255161973 0.098594348715427466 -0.059664756667533486 -0.038648209006568943
leaf_weight=1270.1613063812256 782.47052636370063 18.720443180762231 1370.92315851897 273.90515730436891 146.37005844432861 2441.0646245460957 139.95054124109447 322.38677005656064 94.307939393445849 106.92385214194655 223.2861804459244 46.495457429438829 482.59962791204453 57.776815136894584 7025.027905613184 66.149256667122245 5.730250544846057 216.85615464299917 45.385826738551259 1779.4611264020205 192.49450150132179 92.809954918920994 60.872704774141312 501.88729497138411 590.0986544014886 72.983171354979277 30.134618774056435 44.920626172795892 191.56374344229698 62.33307911362499
leaf_count=3729 1550 263 2259 3680 465 22618 547 2602 419 963 3041 142 674 361 42432 93 48 1062 495 4033 346 332 598 3535 5540 514 407 256 1355 622
internal_value=0.0140452 0.011778 0.0252176 0.00626356 0.00748737 0.00997313 0.0578793 0.0145135 0.0134041 -0.009614 -0.0441341 0.0165799 0.0437742 0.0306363 0.0158659 0.0148762 0.0144562 -0.00409502 0.0368311 0.014904 0.0243064 0.0189966 -0.0482096 0.0275086 -0.0142679 -0.0327625 0.00498615 -0.0059993 -0.0203728 0.0352518
internal_weight=18756.1 17833.6 5188.45 12645.2 12345.4 11079.5 922.421 8376.15 8229.78 997.801 299.783 7231.98 1853.52 76.4973 7185.49 7091.18 614.541 2703.31 262.242 3334.93 2064.77 1872.27 383.259 507.618 1265.94 645.706 620.233 371.801 326.88 135.316
internal_count=104981 102884 11373 91511 87846 75472 2097 51297 50832 7746 3665 43086 2933 624 42944 42525 4546 24175 1557 8440 4711 4365 3200 3583 12374 6427 5947 2747 2491 1136
is_linear=0
shrinkage=0.1


Tree=25
num_leaves=31
num_cat=0
split_feature=25 14 23 15 12 22 24 12 22 27 14 21 26 20 14 8 17 14 23 21 1 16 22 18 28 14 18 26 8 29
split_gain=157.266 107.779 131.887 77.0142 62.0467 56.5625 55.9288 53.8842 50.0941 49.1679 51.1244 80.1909 69.479 65.2664 48.6249 61.621 64.4619 86.7645 66.787 57.9782 43.5859 43.9211 45.2959 42.8854 40.7173 78.9989 57.6173 70.9444 50.8439 72.54
threshold=97.500000000000014 0.10335310675265048 1.5000000000000002 0.44328973814309264 0.47981063240014865 51.500000000000007 5.9850000000000012 0.11167735113973006 6779.5000000000009 3647160.6500000008 0.024416998082947162 6.5000000000000009 0.77525000000000011 12.500000000000002 0.020580548581829377 1.0000000180025095e-35 121.61002170018136 0.020767450026508386 417.50000000000006 9.5000000000000018 1.0000000180025095e-35 0.021076123453049121 4380.5000000000009 0.0047191494156659476 0.041460168539707305 0.099383512699735083 0.017099027249353173 0.93175000000000008 1.0000000180025095e-35 7.5000000000000009
decision_type=2 2 2 2 2 2 2 2 2 2 2 2 2 2 2 2 2 2 2 2 2 2 2 2 2 2 2 2 2 2
left_child=1 3 -3 5 23 -1 -4 -7 24 14 11 -11 -13 -12 -5 16 18 19 -16 -18 21 -8 -23 -2 26 -26 27 -9 -28 -30
right_child=4 2 6 9 -6 7 20 8 -10 10 13 12 -14 -15 15 -17 17 -19 -20 -21 -22 22 -24 -25 25 -27 28 -29 29 -31
leaf_value=0.043377852879041508 -0.064623359755032098 0.06548365624353529 -0.053373967680991244 -0.026600795293187596 0.071144240468761374 -0.041703545633724456 -0.036565798113696049 -0.021490451219812419 -0.13827149309648865 0.036169785279513103 0.10253521157772344 0.1477296276482909 0.78805203327771567 -0.08967087245236266 0.0082403385879188003 -0.035921605470727258 -0.11543006069489864 -0.023303368351633852 0.22811828604587842 0.39914995765612149 0.061855146026560094 0.023212422914467123 -0.046741665713453534 0.033196317109263136 0.020635246021542319 -0.11943137904900132 0.018968055500286015 0.080889428900805901 0.027136257939023318 -0.094723998974162615
leaf_weight=582.49700862169266 49.449528651311994 708.50448438338935 110.79001954942942 729.57273411564529 594.23057913780212 188.86337723955512 153.94204945489764 1000.7784627974033 22.003520585596561 8.8011603690683824 52.316981129348278 3.1426584795117369 3.6775182522833347 26.67420145124197 4299.5313535379246 422.36470276489854 3.0111314915120593 926.57349109835923 13.858824657276271 8.0250438414514047 217.9653951190412 1613.3494779504836 98.195793196558952 478.55960964411497 4166.4945766441524 40.660213924944401 1890.209090936929 72.594129543751478 96.405896350741386 99.024135384708643
leaf_count=929 431 1432 718 10319 830 953 1059 4165 170 56 230 35 19 303 32374 11499 39 12249 84 68 640 5659 656 1435 12739 163 4625 153 414 535
internal_value=0.0126867 0.0103673 0.0279719 0.00688078 0.0489796 0.0133493 0.0158596 0.0110408 0.0123891 -0.00124227 0.0703195 0.235618 0.492999 0.0376299 -0.0022997 0.000825324 0.00378107 -0.0199834 0.0089468 0.258751 0.0195412 0.0145972 0.019199 0.0240352 0.0128391 0.0192816 0.00425913 -0.0145663 0.0139476 -0.0346102
internal_weight=18682.1 17559.8 2902.75 14657.1 1122.24 8159.53 2194.24 7577.03 7388.17 6497.55 94.6125 15.6213 6.82018 78.9912 6402.94 5673.36 5251 937.61 4313.39 11.0362 2083.45 1865.49 1711.55 528.009 7366.17 4207.15 3159.01 1073.37 2085.64 195.43
internal_count=104981 102285 10164 92121 2696 24846 8732 23917 22964 67275 643 110 54 533 66632 56313 44814 12356 32458 107 8014 7374 6315 1866 22794 12902 9892 4318 5574 949
is_linear=0
shrinkage=0.1


Tree=26
num_leaves=31
num_cat=0
split_feature=14 30 15 22 25 12 22 24 19 27 24 20 23 11 13 4 17 22 22 12 21 21 19 27 26 28 18 26 19 24
split_gain=144.297 103.166 72.6309 59.6782 57.7584 67.2402 52.2074 54.1902 68.9533 52.1738 48.607 48.4971 55.6551 47.8012 44.9528 44.8543 44.7443 42.9892 42.9989 42.3237 45.7127 51.5569 128.058 41.7565 76.272 41.6506 43.2454 47.8373 40.7922 40.0903
threshold=0.23165099115747331 1.0000000180025095e-35 0.44328973814309264 3585.5000000000005 92.500000000000014 0.47981063240014865 36.500000000000007 5.3050000000000006 161.44000000000003 33861.19000000001 255.90000000000003 1.5000000000000002 714.50000000000011 1.0000000180025095e-35 2.3813832979301021e-05 1.0000000180025095e-35 -296.63974494252733 100.50000000000001 6779.5000000000009 0.47981063240014865 159.50000000000003 155.50000000000003 4734.0350000000008 10868.720000000001 0.81895000000000007 0.041460168539707305 0.017099027249353173 0.92185000000000017 73.070000000000022 19.825000000000003
decision_type=2 2 2 2 2 2 2 2 2 2 2 2 2 2 2 2 2 2 2 2 2 2 2 2 2 2 2 2 2 2
left_child=1 3 4 6 10 11 7 8 -1 -5 17 13 -13 14 -6 -8 -2 -3 25 20 21 -4 -23 24 29 26 27 -19 -12 -21
right_child=16 2 19 9 5 -7 15 -9 -10 -11 28 12 -14 -15 -16 -17 -18 18 -20 23 -22 22 -24 -25 -26 -27 -28 -29 -30 -31
leaf_value=0.066487158265086208 0.096721911604626801 -0.094485219633223302 -0.014699454215819649 -0.034383787163970121 0.079195350497143296 0.068472598009619801 0.14554737703229279 0.042874417412381738 -0.13849227548739859 0.12499744105933892 -0.23678734457781336 0.031012088835992047 -0.15984160152499766 0.027737073726239916 -0.25242116511377061 0.011636416944788038 0.032876222576048129 -0.02113155153500999 -0.1322612370133566 -0.014582754409248336 -0.10597873774716859 -0.10752301043491888 1.1450223440004204 0.0074608783359938063 0.020379099203699003 0.015844638145864481 0.009209875701122066 0.066186703630687391 0.052514535751918071 -0.062450774404533498
leaf_weight=28.995480343699455 242.68570150248706 40.602075066417456 1280.7214754698798 25.790774190798402 5.181062780320647 380.78094758838415 25.305406745523214 1269.7834802046418 37.811873085796833 100.86264478415251 4.950715795159339 321.00986731424928 16.042929448187351 19.347441345453262 19.371369164437056 2167.345215594396 200.41679621115327 1014.9783833958209 21.571100249886513 438.29364629555494 55.972561146132648 2.1313621560111637 1.3228494096547363 3857.9227127637714 406.11509460024536 3995.251243069768 1943.9804004654288 66.875689178705215 314.00514618307352 291.21487753465772
leaf_count=52 333 132 15782 135 12 573 95 2570 162 224 25 764 118 34 105 6691 631 4392 174 5452 1511 49 6 39488 3344 12811 5455 164 598 3099
internal_value=0.0114624 0.0100862 0.00630062 0.0250982 0.012535 0.0387552 0.0226779 0.0382558 -0.0495279 0.0925422 0.00983673 0.00905118 0.0219279 -0.0898132 -0.182443 0.0131819 0.0678443 0.00811717 0.00870869 -0.00173527 -0.0175147 -0.0136589 0.372161 0.00249955 -0.014355 0.0091418 0.0002915 -0.0157339 0.0480241 -0.0336913
internal_weight=18596.6 18153.5 14497.6 3655.89 8163.95 761.734 3529.24 1336.59 66.8074 126.653 7402.21 380.953 337.053 43.8999 24.5524 2192.65 443.102 7083.26 7042.66 6333.69 1340.15 1284.18 3.45421 4993.55 1135.62 7021.09 3025.83 1081.85 318.956 729.509
internal_count=104981 104017 94088 9929 25357 1606 9570 2784 214 359 23751 1033 882 151 117 6786 964 23128 22996 68731 17348 15837 55 51383 11895 22822 10011 4556 623 8551
is_linear=0
shrinkage=0.1


Tree=27
num_leaves=31
num_cat=0
split_feature=25 14 27 14 24 28 15 25 12 24 19 12 19 27 27 24 26 20 25 24 26 24 22 22 26 22 27 27 24 23
split_gain=131.28 90.2616 71.5776 61.0501 56.6129 64.8149 53.1452 56.3762 50.587 46.5631 45.2902 43.5686 51.5062 58.1675 48.1482 67.9289 43.3565 43.326 43.2476 42.5013 41.6288 40.7979 40.1313 57.3352 45.0292 39.1057 39.0826 58.1379 65.4789 45.9529
threshold=98.500000000000014 0.052679842165218434 55.270000000000003 0.28536610881402563 4.1550000000000011 0.4388117980903109 0.13780588868461915 88.500000000000014 0.47981063240014865 64.575000000000003 672.7750000000002 0.47981063240014865 758.60500000000013 297826.82500000001 389951.13500000007 10.965000000000002 0.79085000000000016 2.5000000000000004 16.500000000000004 3.9950000000000006 0.86695000000000011 18.005000000000006 3004.5000000000005 2951.5000000000005 0.57985000000000009 1965.5000000000002 303.43500000000006 2557.4750000000004 14.115 507.50000000000006
decision_type=2 2 2 2 2 2 2 2 2 2 2 2 2 2 2 2 2 2 2 2 2 2 2 2 2 2 2 2 2 2
left_child=1 4 19 6 10 11 7 9 -2 -4 16 12 13 22 15 -14 -1 21 25 -3 -17 -7 23 24 -6 -15 -13 28 -28 -29
right_child=8 2 3 -5 5 17 -8 -9 -10 -11 -12 26 14 18 -16 20 -18 -19 -20 -21 -22 -23 -24 -25 -26 -27 27 29 -30 -31
leaf_value=0.009500938125251596 0.024014141321952908 -0.11609612959370844 0.0071795244881372724 0.079728077430056721 0.0079527117989682261 -0.016915531851194526 0.0083581839607977781 0.053188925889349647 0.07248976356158697 0.044346761469686483 -0.068369639016332612 0.048693089683558954 -0.13207327279181208 0.15596124326742894 -0.054124930545918042 0.040753931302430657 -0.099527165726040687 0.040004765229610183 -0.0044906448235409934 0.09151214719033203 -0.13738795459126768 0.089070790506700345 -0.069745412986330052 0.22687600166405131 -0.045282506474764575 -0.034087175371164007 -0.09789589618789335 0.0095491543406473877 -0.0081436244091706682 -0.015056152893289801
leaf_weight=250.71482499316335 426.58392968028784 10.483788587152956 1244.5830820798874 142.18561356887221 244.28025166969746 287.76419505383819 5593.9750044159591 586.25495514273643 434.58697640150785 462.26692625135183 196.78396639786661 192.96563581004739 25.818226978182793 37.700190652161837 91.801222333684564 407.94763163942844 42.682967846281826 746.41274760663509 142.64141157455742 165.94395665079355 13.553663078695534 41.565433248877525 254.40553157869726 9.0338684450834972 454.5440770490095 15.189289338886736 114.32044749706984 4709.080888598226 281.28967756219208 904.87511279713362
leaf_count=1996 1469 71 2833 241 1677 1782 31503 961 628 777 1811 815 397 97 797 3005 373 4949 1236 330 142 136 3845 66 3674 126 1056 28354 1752 8082
internal_value=0.0103511 0.00849311 0.016169 0.0147846 0.00183871 0.00364608 0.0136138 0.0264348 0.0484772 0.0172455 -0.031254 0.000510112 -0.0136884 -0.0255769 0.0118429 0.0253811 -0.00636027 0.0266743 0.0241469 0.0791755 0.0350257 -0.00353876 -0.0356807 -0.0234378 -0.0266737 0.101381 0.0043946 0.00297219 -0.0340796 0.00558319
internal_weight=18532.2 17671.1 8205.69 8029.27 9465.37 8975.19 7887.08 2293.1 861.171 1706.85 490.182 7899.45 1696.92 1157.79 539.121 447.32 293.398 1075.74 195.531 176.428 421.501 329.33 962.264 707.858 698.824 52.8895 6202.53 6009.57 395.61 5613.96
internal_count=104981 102884 36716 36315 66168 61988 36074 4571 2097 3610 4180 55121 15062 10721 4341 3544 2369 6867 1459 401 3147 1918 9262 5417 5351 223 40059 39244 2808 36436
is_linear=0
shrinkage=0.1


Tree=28
num_leaves=31
num_cat=0
split_feature=25 15 25 25 26 25 23 27 29 21 12 19 22 18 25 28 25 14 28 21 18 13 3 24 30 26 17 27 29 24
split_gain=110.664 79.3963 82.6235 66.7546 66.3948 60.1239 49.8987 56.2423 48.3056 46.6879 45.492 60.0406 42.6593 41.9661 41.6034 47.2203 40.4524 49.3168 40.1957 79.7195 47.2976 39.9686 52.9055 39.1345 38.6502 38.0114 36.3038 35.9196 55.1713 50.9195
threshold=98.500000000000014 0.44328973814309264 71.500000000000014 26.500000000000004 0.78675000000000017 43.500000000000007 10.500000000000002 303.43500000000006 28.500000000000004 19.500000000000004 0.47981063240014865 919.1450000000001 1055.5000000000002 0.0156011880695425 39.500000000000007 0.18620918196802563 9.5000000000000018 0.011149235664960335 0.059335311242971707 102.50000000000001 0.018499382103333979 0.00028100322915575204 1.0000000180025095e-35 3.7550000000000003 1.0000000180025095e-35 0.82005000000000006 1026.7122349162444 26405.765000000003 22.500000000000004 4.8350000000000009
decision_type=2 2 2 2 2 2 2 2 2 2 2 2 2 2 2 2 2 2 2 2 2 2 2 2 2 2 2 2 2 2
left_child=1 2 3 16 9 10 21 -8 -2 23 11 14 -12 -9 -5 -16 17 -1 20 -20 -15 22 -7 -4 -14 -24 27 28 29 -3
right_child=8 26 4 5 -6 6 7 13 -10 -11 12 -13 24 18 15 -17 -18 -19 19 -21 -22 -23 25 -25 -26 -27 -28 -29 -30 -31
